fawn -0.022007 -0.05519 0.02872 0.068785 0.050611 0.022895 -0.040061 -0.038063 -0.016093 0.01341 -0.049349 0.005999 -0.064769 0.069183 -0.13563 0.080479 0.068122 -0.017982 -0.009549 -0.068936 0.033079 0.052236 -0.0338 0.038872 -0.042997 0.024885 0.126971 0.033132 0.031013 -0.009393 0.008393 -0.006124 0.029944 0.032875 -0.087842 -0.048692 0.013035 0.028052 -0.016989 -0.002897 0.021392 0.04978 -0.07294 -0.086655 0.006667 -0.004961 -0.016909 -0.036118 -0.007585 -0.061166 -0.007797 -0.08964 -0.075515 0.07228 -0.034788 0.092618 -0.109013 -0.045309 -0.00681 0.03395 0.003403 0.015372 -0.094173 -0.04883 0.021002 0.060896 -0.081588 -0.042707 0.065235 -0.026961 0.041145 0.084341 0.03689 -0.071702 0.026412 0.072234 -0.016636 0.043291 0.055068 -0.148869 -0.025673 0.013987 -0.027957 -0.054485 -0.030138 0.037851 0.106039 0.024099 0.130775 0.076455 -0.001561 0.023769 -0.048294 -0.053056 0.007384 0.166794 -0.050581 0.015024 0.036348 -0.099834 0.00045 0.021545 0.011877 0.042799 -0.001312 0.06088 -0.043304 0.050031 -0.008112 -0.043769 -0.030516 0.09181 0.126635 -0.060898 0.045313 0.006546 -0.004172 -0.041559 0.073294 -0.023864 -0.038858 -0.08573 0.046579 -0.039631 -0.065604 -0.054476 0.056182 0.069053 -0.053585 -0.004033 -0.022574 -0.046986 -0.044914 0.105319 -0.034445 -0.094086 0.015254 0.0914 0.080814 0.039366 -0.155911 -0.037636 -0.010164 -0.077641 0.131796 0.035798 0.023971 0.008423 0.001148 0.078139 -0.052522 -0.063791 -0.024286 0.016698 -0.002105 -0.014515 0.095165 0.014538 0.053086 -0.074416 -0.081052 -0.008447 -0.088143 0.038992 0.035954 -0.048808 -0.088312 -0.07406 -0.021255 0.01123 0.055454 -0.085454 0.013319 -0.017642 0.05813 0.088713 -0.029426 -0.075606 0.031157 0.1237 0.019258 -0.069352 -0.028924 -0.043358 0.064462 0.009032 0.014785 -0.025911 -0.025488 0.068758 -0.068084 -0.064583 0.022374 -0.003785 0.095983 0.077642 0.073717 0.001857 0.053814 -0.065071 -0.026736 0.032591 -0.076398 -0.023895 0.038072 -0.050078 0.028245 -0.025211 -0.00754 -0.051858 0.031883 -0.122327 -0.056274 0.0521 -0.036567 0.014587 -0.035634 0.016625 -0.003164 0.034775 0.067492 0.062743 0.022105 -0.010886 -0.017472 -0.075641 0.021392 -0.041189 0.022317 0.053578 0.079678 -0.002896 -0.014139 -0.026173 0.047373 0.086553 -0.041983 -0.100581 0.130197 -0.02935 -0.080519 -0.004121 -0.019958 0.054786 -0.026665 -0.131716 -0.051318 0.077634 0.114681 0.066144 0.000987 -0.095366 0.029177 0.126102 0.064302 -0.019632 0.081494 -0.108371 0.023859 0.05481 0.077948 0.027902 0.046404 -0.097958 0.037652 0.035382 -0.008881 0.004318 -0.073101 0.095434 0.012492 0.023917 0.10584 -0.019293 0.01183 -0.086149 0.022075 -0.022716 -0.031183 -0.03266 0.089129 -0.016325 -0.02148 -0.001791 0.079183 -0.039048 -0.040144 0.048322 0.031492 -0.072051 -0.099561 -0.041055 -0.052527 0.02335 -0.0463 -0.011618 0.033397 0.050891 -0.033437 -0.018231
schlegel 0.008139 0.027563 0.043574 0.018623 -0.019398 0.056786 0.0574 0.038546 0.044863 0.026222 0.092158 -0.014177 -0.131203 -0.020836 -0.034496 0.050827 0.022107 -0.144877 0.009365 0.007148 -0.023674 0.131219 -0.037746 0.033551 -0.006873 0.074827 0.044464 -0.033722 0.056107 -0.013657 0.03108 -0.046675 0.020448 -0.002453 0.037504 0.009416 -0.05369 0.008337 -0.054143 -0.081346 -0.025423 0.025137 -0.026018 0.024671 -0.049087 -0.093239 0.032938 -0.088213 0.104688 -0.000877 -0.010391 -0.053171 0.033619 -0.001916 0.061465 -0.111309 -0.06896 0.095656 -0.056824 -0.008952 0.130276 -0.058978 0.039719 0.036947 -0.056602 0.038827 -0.019774 -0.011416 0.072951 0.027372 -0.027721 -0.00347 -0.116034 0.033638 -0.080097 -0.022603 -0.095563 0.094052 -0.087205 -0.070052 0.00657 0.037173 -0.017304 -0.035123 0.052677 -0.09583 -0.010634 -0.192838 -0.061633 0.058963 -0.046929 -0.027996 -0.018313 0.027973 -0.035833 -0.017668 -0.011246 -0.026168 -0.093343 0.042587 0.01432 -0.024238 0.063273 -0.002347 -0.032815 0.063595 0.011809 0.076625 0.078922 -0.054 -0.025483 -0.056005 -0.061796 -0.010895 -0.059884 -0.005002 -0.073651 -0.058066 -0.058754 0.132317 0.032648 0.063511 0.031989 0.042478 0.002757 0.05169 -0.066147 0.023907 -0.000435 0.119085 -0.052664 -0.012688 0.025235 -0.014117 -0.092546 0.052555 0.04077 0.01422 -0.024827 0.013947 0.145216 -0.076372 -0.092181 0.02096 0.059334 0.091123 -0.118895 0.048106 -0.013651 0.075962 -0.068482 -0.119133 -0.010689 0.073121 -0.028799 0.019296 0.030256 -0.007567 -0.048158 0.037101 0.062143 0.017733 0.033536 -0.026535 0.110406 -0.057642 -0.009887 0.092141 0.004965 -0.054718 -0.021814 -0.088738 -0.024766 -0.023096 0.019329 -0.126356 0.00258 -0.04371 -0.057635 -0.056815 0.045978 -0.005255 0.026917 -0.056741 -0.038313 -0.056113 -0.020747 -0.005017 0.013677 -0.042961 -0.139026 0.058149 -0.012399 0.013702 -0.037345 0.059873 0.013093 -0.038895 -0.014606 -0.060765 -0.040519 -0.024492 -0.035305 -0.021434 0.07822 -0.056371 0.072378 0.009704 -0.025286 0.042659 -0.053703 0.044791 0.067642 -0.041722 -0.004496 -0.071497 0.075744 0.048795 0.043717 -0.072433 0.166979 -0.025717 0.059943 0.011989 0.00269 -0.057074 -0.014657 -0.083389 0.002527 -0.024394 -0.038079 0.003569 -0.005069 -0.045372 0.050002 0.137941 0.0255 0.01545 0.04414 0.039289 -0.066115 0.002395 -0.038664 0.000613 -0.02985 0.044813 -0.115617 0.039715 0.082546 0.027035 0.06234 0.009452 -0.048917 -0.062485 -0.010939 -0.163995 0.118422 0.038847 0.056295 -0.018267 0.008841 0.084161 -0.073388 0.098183 -0.055645 0.055418 -0.044052 0.007818 -0.011806 -0.028711 0.011277 0.066646 0.048824 0.04 -0.000996 0.028075 -0.006509 0.002975 0.00383 -0.07159 -0.071558 0.022988 -0.086039 0.020893 -0.03044 -0.032124 -0.043887 0.075262 -0.058315 0.034902 0.08344 -0.024763 0.073465 0.112992 0.072141 0.001301 0.040458 -0.016528 -0.017961 -0.035425
nunnery 0.087648 -0.015906 -0.044234 0.000319 -0.018067 0.059591 -0.045889 0.05001 -0.01877 0.084509 -0.006743 0.017022 0.047221 -0.011711 0.09455 0.113456 0.012144 -0.067808 0.12573 0.060969 0.092997 -0.000588 0.07058 0.056211 -0.034203 -0.001478 -0.042634 -0.030529 0.003983 0.00695 0.08407 0.060294 0.125308 -0.020931 0.04579 0.090261 -0.055972 -0.086157 0.003498 0.000718 -0.000538 -0.075692 0.09085 -0.021806 0.061332 0.010214 -0.014839 -0.011679 -0.045753 0.029147 0.01661 -0.02348 -0.040522 -0.011635 0.096275 -0.034055 0.043553 -0.026497 -0.042388 0.084447 -0.088452 -0.050582 0.001782 -0.053667 -0.063641 0.071186 0.028637 0.078204 -0.029274 0.034004 -0.035793 -0.004297 -0.002333 -0.02803 0.038702 -0.01704 0.001012 -0.01443 -0.114358 -0.057099 -0.013327 0.041026 -0.004636 0.062162 0.044793 0.004147 0.047545 -0.070159 -0.019689 0.028697 -0.093075 0.124238 0.024939 -0.122084 0.039385 0.043351 0.042961 -0.012992 -0.110593 -0.057799 -0.022462 -0.068005 -0.073968 -0.004641 0.031897 -0.07713 -0.100674 0.05282 0.006987 -0.053284 -0.036095 0.023454 -0.013272 0.088984 0.019316 0.020769 -0.040543 -0.030037 -0.071337 0.051917 0.11623 -0.058107 0.105054 -0.07936 0.025133 0.01901 -0.034111 -0.063069 0.086038 0.013971 -0.120591 0.064484 -0.016768 0.041004 0.074976 -0.076703 -0.089502 0.048337 -0.06959 -0.035118 -0.092305 -0.06711 -0.031725 -0.10516 0.004041 -0.075079 0.037828 -0.015143 0.000114 0.011987 -0.02191 0.038447 0.120317 -0.063709 0.052436 -0.029882 0.024802 -0.049382 -0.015375 -0.105778 -0.034165 -0.106819 -0.027371 0.104057 0.002753 -0.010402 -0.048772 0.104173 0.070873 0.05666 0.028413 0.004975 0.084725 0.099317 0.049865 0.085655 -0.056333 0.02853 -0.081217 -0.037649 -0.034871 0.010115 -0.027637 0.023968 -0.088265 -0.083013 -0.028719 0.031662 0.114638 -0.0618 -0.104564 -0.038124 0.018786 -0.087493 0.004733 0.036944 -0.057183 -0.068608 -0.035959 0.005878 0.009561 0.121334 -0.040195 -0.078173 -0.049972 -0.086786 0.033836 -0.097287 0.014964 -0.101883 -0.090775 0.068414 -0.041335 -0.030523 0.050751 -0.076422 0.028257 0.090853 -0.000475 -0.072418 -0.003075 0.002277 -0.000993 -0.025631 -0.040606 -0.006604 -0.093495 -0.046706 -0.068018 -0.062689 0.087647 0.073852 0.076592 0.029707 0.01934 0.007079 -0.05446 -0.026571 -0.048828 -0.051902 -0.060837 0.035466 0.023985 -0.114336 0.064351 -0.007968 0.058794 0.025674 0.009855 -0.094248 0.06984 0.027139 -0.011322 -0.002351 0.03408 -0.044756 0.042398 -0.006791 0.044896 0.04017 0.047599 0.000739 0.030069 0.0324 0.039851 -0.054967 -0.064527 -0.07711 -0.089699 -0.095498 -0.025976 0.023447 -7.4e-05 -0.018272 -0.018855 0.036017 0.016526 0.033689 0.076061 0.08102 0.007922 0.065361 0.046335 -0.052531 -0.099585 -0.01249 -0.023473 -0.021655 -0.031222 -0.079315 0.040105 -0.09402 -0.011856 0.086883 -0.066893 -0.079021 0.00236 0.044814 -0.019434 -0.046418
deferment -0.056764 0.076115 -0.063343 0.02385 -0.076332 -0.000532 0.0306 0.005209 -0.032199 0.079151 0.004513 -7.9e-05 0.035266 0.062277 -0.014916 0.024858 0.048486 -0.066474 -0.03095 0.103284 -0.081005 -0.018673 -0.053082 0.000733 0.00946 -0.060545 0.021691 0.044763 -0.009922 0.005675 -0.091351 -0.108334 -0.082683 0.028368 0.057768 0.018087 0.050238 0.004781 -0.031682 -0.052119 -0.019751 -0.048118 0.053868 0.156366 0.000618 0.041029 -0.058759 0.024382 0.025982 0.027525 0.035423 -0.087627 0.022964 0.053625 -0.060505 0.104637 -0.049673 -0.00286 -0.095065 -0.011636 -0.005272 0.095789 0.037619 0.047581 -0.022768 0.018686 -0.032241 -0.058401 -0.016443 -0.004422 0.088129 0.070305 -0.019314 -0.02283 0.004712 -0.00985 0.027139 0.091871 -0.028618 -0.022547 -0.025395 0.047886 -0.115738 0.10068 0.02608 0.02153 0.12525 -0.016335 0.061453 0.070605 -0.03346 0.033913 -0.102212 0.004832 -0.122925 0.063048 0.008503 -0.060308 0.08631 0.049904 0.099854 0.049686 -0.058053 0.07015 0.021915 -0.141917 0.085326 0.008203 0.008024 -0.032491 -0.094754 0.014826 -0.08584 0.023431 0.048399 -0.07693 -0.120053 0.018278 -0.015829 0.039984 -0.006445 0.04559 0.002195 0.01745 -0.004594 0.047746 0.034918 -0.035239 0.10232 0.171793 0.055336 -0.063572 -0.020056 -0.027661 0.049169 0.041314 0.066485 -0.015014 -0.05723 -0.008023 0.044692 0.020765 -0.072472 -0.077146 0.038658 0.087095 -0.002902 -0.012325 0.033371 0.03154 0.026428 -0.014818 0.019676 -0.021904 0.029735 -0.09135 0.133599 -0.090949 0.064771 0.02067 -0.078984 -0.03299 -0.04557 -0.127644 -0.061298 0.10957 0.051033 0.06422 -0.063622 -0.052186 -0.012245 -0.090466 0.033954 -0.025091 0.01844 -0.021385 0.074944 -0.014621 0.023006 0.006259 -0.048561 -0.019017 -0.021477 0.002841 -0.018021 -0.029193 0.006764 0.000877 -0.001303 -0.00262 -0.034534 0.02666 -0.08233 -0.037046 0.042652 0.118338 0.043308 -0.017065 -0.008967 0.020606 0.003392 0.123919 -0.057398 -0.12665 0.008992 -0.11022 -0.048387 -0.018419 0.050548 0.117037 0.021328 0.088783 0.108202 0.04686 -0.004969 0.079054 -0.055133 0.033525 0.066898 0.008817 -0.035014 -0.085211 -0.00592 0.039235 -0.026278 -0.011713 -0.016975 -0.076363 -0.036307 -0.009845 0.088527 0.062173 0.091081 0.073421 -0.033447 0.00268 -0.045238 0.045069 -0.070336 0.027704 0.044433 -0.056211 0.01182 -0.01595 -0.000385 0.039748 -0.011672 0.021461 0.017308 0.018397 -0.119614 -0.027614 0.040241 -0.050183 0.001759 0.057285 -0.114125 -0.161081 -0.003229 0.01092 0.021381 -0.076487 -0.030096 0.053342 0.006495 0.014377 0.053091 0.011469 0.018499 -0.055733 0.088196 -0.030089 -0.009509 -0.011082 0.129982 0.0721 0.01258 0.09089 0.081542 -0.007092 0.080999 0.015993 -0.022608 0.070389 0.057016 -0.033347 0.037586 -0.044689 -0.059891 0.037793 0.075875 -0.036576 -0.01815 -0.066925 0.014497 -0.085515 -0.035147 -0.00106 -0.097205 -0.027687
sonja -0.085144 -0.035817 -0.002502 0.04833 -0.082875 0.046279 0.070163 0.031957 -0.02163 0.104793 0.078622 -0.080846 -0.017947 -0.000723 0.073248 -0.004472 -2.7e-05 -0.229781 -0.087279 -0.065957 0.012283 0.02164 -0.06453 0.011287 0.012359 0.018979 0.055115 -0.032245 -0.010551 0.064767 0.046001 -0.030861 -0.04235 -0.057772 0.056956 -0.059173 -0.019575 -0.109689 -0.069811 -0.160521 0.065691 -0.025028 -0.01014 -0.002333 -0.008985 -0.025959 -0.039672 0.046138 0.02144 -0.059751 0.095115 0.082964 0.043567 0.033095 0.006882 -0.021007 -0.033653 0.001474 -0.048554 0.058213 -0.079057 -0.06686 -0.027055 -0.027307 0.003143 -0.098228 -0.006819 0.050159 0.144297 0.055033 -0.020707 -0.100407 -0.050056 -0.097899 -0.100239 -0.064673 0.020839 -0.087172 0.000357 -0.044267 -0.018578 -0.075517 -0.019377 -0.004198 0.008764 -0.095842 0.047203 -0.052713 0.011647 0.01386 0.061556 0.078916 -0.022798 0.063356 -0.021028 -0.048833 0.005408 0.102961 0.001177 0.031452 0.02434 -0.078635 0.057447 -0.036949 -0.036505 0.200529 -0.035428 0.002372 -0.022421 -0.045724 -0.12026 -0.089775 0.039583 -0.060598 0.068443 0.034977 -0.04567 -0.115342 0.106558 0.035548 -0.068999 0.00808 -0.070707 0.008619 -0.017765 0.023713 0.048552 0.00549 0.016445 0.010238 -0.049539 -0.047077 -0.041938 -0.064508 0.04993 0.023421 0.007557 0.045634 0.049568 0.07427 -0.036886 -0.103154 -0.039127 -0.035559 -0.049997 0.036443 -0.088082 -0.005385 -0.070784 0.105225 0.022511 -0.020102 -0.019344 -0.008498 -0.012786 0.03331 -0.021083 -0.053294 0.003765 -0.026066 -0.029902 -0.047259 0.130092 0.072224 -0.023308 -0.00174 0.040594 -0.028025 -0.078867 -0.047669 -0.013247 -0.08363 -0.00558 0.039919 0.102194 0.033674 0.035058 -0.011772 0.0201 -0.001928 -0.000825 0.058853 -0.013575 -0.05171 0.107509 0.049277 0.021721 -0.005882 0.007614 0.117945 -0.066622 -0.000174 -0.052122 -0.020114 0.010344 -0.057605 -0.026841 0.124582 0.010861 0.029605 -0.079801 -0.022287 0.000252 -0.062224 -0.009568 0.104295 0.009672 -0.029217 -0.051246 -0.012443 0.023015 -0.03822 0.057073 0.034494 0.003562 0.088134 -0.004796 -0.061704 -0.007528 0.025696 -0.121944 0.052125 0.102709 0.046279 -0.024367 -0.043146 0.032217 -0.055581 0.028387 -0.074698 -0.048718 -0.008047 -0.025698 0.016337 -0.068863 -0.048 0.028337 0.053228 0.04671 -0.048959 0.038404 0.048635 0.035478 -0.016257 -0.020969 -0.051236 -0.036546 -0.007047 0.060439 0.015865 -0.062618 0.075731 0.023084 0.020638 0.002941 0.018433 0.116339 0.012312 -0.110479 -0.060379 -0.032594 0.019361 0.004614 0.075924 -0.105003 0.023357 -0.051541 -0.018339 -0.094202 0.079045 -0.06547 -0.009086 -0.059454 0.08034 0.068399 0.070927 0.002755 0.098456 0.073465 0.023799 0.101171 0.023728 0.07646 0.053758 0.029714 -0.025944 0.025331 0.057271 -0.092119 -0.0056 0.085395 0.00548 -0.021566 0.074645 0.035489 -0.020085 -0.016924 -0.071319 0.063986 -0.031849
tilton -0.024751 0.032316 -0.004233 -0.048138 0.004025 0.048276 -0.06325 -0.056506 0.012567 0.097937 0.120768 0.032161 -0.091879 0.033204 -0.042627 -0.067312 -0.06955 -0.11699 0.001537 0.016712 0.010154 -0.022495 0.046248 0.033571 0.081393 0.063178 -0.031554 -0.013797 0.017853 0.07734 0.076807 0.124065 -0.00547 -0.052525 -0.003035 0.007022 -0.085093 0.044506 -0.050442 -0.025994 -0.034772 -0.057252 0.000137 -0.039516 0.059141 0.110059 0.004203 -0.016202 0.059178 -0.092073 -0.011711 -0.051173 -0.020152 -0.02041 0.044342 -0.027383 0.012779 -0.021802 0.02231 -0.074002 0.042189 -0.032685 0.007776 0.128602 0.021317 -0.079414 0.003801 0.039605 0.043 0.049156 0.010058 0.012009 -0.195791 0.027498 -0.122494 -0.039673 -0.101747 0.046135 0.08048 -0.104095 0.006576 -0.082407 -0.021732 -0.104044 -0.02154 0.021332 0.064323 -0.055565 -0.035006 -0.088729 0.044481 0.117119 -0.012014 -0.032338 0.111581 0.016718 -0.063169 -0.015861 0.066554 -0.010008 -0.08577 0.034519 -0.016606 -0.010047 -0.047364 0.182802 0.05742 0.022793 -0.021847 0.009778 -0.106231 0.036617 0.047254 -0.032363 0.03388 -0.049009 0.034572 0.041507 0.02737 -0.030501 -0.040983 0.046219 0.011373 0.008763 -0.026489 0.005358 0.052581 -0.00307 0.100587 -0.070441 0.029982 -0.000936 0.013148 -0.124004 -0.079911 0.069452 -0.050613 -0.034197 0.00135 -0.058811 0.197563 -0.058977 -0.076411 0.049641 -0.026476 -0.035886 0.020648 -0.02494 -0.077928 0.016293 0.032795 -0.004 -0.051414 -0.020795 0.025219 -0.085178 0.031896 -0.035221 -0.037011 -0.109128 -0.029187 -0.0126 0.012246 -0.013307 0.118125 0.055961 -0.036813 0.048753 -0.016518 0.04638 -0.052909 -0.021014 0.041907 0.105379 -0.045971 -0.090188 0.066268 0.02933 -0.01679 0.03277 0.015823 -0.113158 0.058703 -0.04572 -0.003617 -0.09262 0.007382 -0.036451 -0.022936 -0.027277 0.094294 -0.052579 0.09445 -0.023217 0.036465 -0.005305 -0.012565 0.063599 -0.053365 0.049375 0.012894 -0.040091 0.07567 -0.064777 0.022154 0.050359 0.034595 -0.02681 -0.045207 0.027573 0.051563 0.064577 0.000538 0.000452 0.016626 -0.024955 -0.099651 0.035328 0.059182 0.042461 0.045705 0.047567 0.043562 0.014874 -0.028412 -0.050994 -0.075318 -0.059456 0.024563 -0.098565 0.031888 -0.079165 0.036329 -0.000212 0.039543 -0.065195 -0.049088 0.048376 -0.067061 0.042259 0.003065 -0.050758 0.066769 0.050408 -0.04548 0.005193 -0.087395 0.008823 -0.005146 -0.01598 -0.030478 -0.112159 -0.008786 -0.018993 -0.107848 -0.044272 0.055931 0.026661 -0.057753 -0.001536 0.05496 -0.043712 0.029149 0.017988 0.03549 0.089864 -0.048864 0.064807 -0.133401 0.000864 0.042063 0.008448 0.083555 -0.051499 -0.067429 -0.038412 -0.008059 0.021671 -0.059949 -0.012981 -0.080154 -0.01096 -0.085248 0.002551 -0.054513 0.072424 -0.010528 -0.079698 0.001441 -0.060703 0.065274 0.041569 0.004835 0.056719 0.020897 -0.008423 0.015346 0.167549 -0.08393 -0.009824
gag -0.111393 -0.013977 -0.039034 -0.017557 -0.023821 -0.078954 -0.020952 -0.02304 0.040992 0.084715 -0.032659 -0.012945 0.082212 -0.004779 -0.00871 0.091618 0.095438 -0.008717 0.031281 -0.013739 0.003907 0.003256 0.01507 -0.029086 0.043732 0.030701 0.006199 -0.010264 -0.067816 -0.026209 -0.043219 -0.042595 -0.0436 0.059056 0.106419 -0.015088 -0.002963 0.057801 -0.037268 -0.027125 -0.015118 0.01644 -0.088614 -0.046215 0.083535 0.061269 -0.022109 -0.025577 0.01213 0.01426 0.123459 -0.019868 -0.004032 -0.056287 -0.010617 -0.007295 0.054169 -0.011257 0.041051 0.006909 -0.041449 0.011273 0.059596 0.036792 -0.008943 -0.060378 0.032001 -0.182373 -0.051327 -0.048679 0.092497 -0.091224 -0.061166 0.020371 -0.022999 -0.052415 -0.021434 -0.007438 -0.062591 0.097931 -0.045487 -0.002564 0.003442 -0.0092 0.068207 -0.004828 0.132471 0.01733 0.0862 0.016962 -0.025964 0.07528 -0.003501 0.021509 -0.013498 0.040115 -0.067929 -0.010552 0.08146 -0.110864 0.008101 0.00531 -0.08479 0.049901 0.102002 -0.15073 0.06128 0.027528 -0.084963 0.038513 0.01114 0.033136 -0.150828 -0.033074 -0.106934 -0.06992 -0.08087 -0.044716 0.017407 0.082477 0.019541 0.003055 0.01461 0.017441 -0.09154 0.035174 -0.052953 0.010758 -0.056446 -0.016039 -0.050144 -0.003293 0.059329 -0.002909 -0.001468 -0.001205 0.023839 -0.000866 -0.036882 0.019951 -0.285034 0.114055 0.007229 0.107491 0.028887 -0.026669 -0.027127 -0.091926 0.009102 0.046184 0.015654 0.015971 0.037706 -0.073679 0.026726 -0.006875 0.000771 -0.02747 0.039328 -0.020801 -0.03914 -0.077482 0.023057 -0.076568 -0.021637 -0.0567 -0.063228 -0.012544 0.00626 -0.008115 0.045224 -0.000994 -0.046714 0.022027 -0.02606 0.047951 -0.053471 -0.007006 0.123425 -0.017515 -0.048215 -0.085187 0.033683 0.034677 0.050775 -0.087681 -0.013223 0.039045 0.005463 0.049277 -0.103241 -0.074806 0.021118 -0.096006 0.024149 -0.020857 -0.02838 -0.11088 0.054936 -0.042874 -0.032233 0.083868 0.004993 0.050795 -0.069775 -0.03319 0.062365 -0.003631 0.006282 0.061662 -0.070598 0.043967 -0.065633 0.007211 0.084464 0.022501 0.032084 0.004123 0.041242 -0.082191 0.037522 0.030338 0.050996 -0.063942 -0.07457 0.00479 -0.004567 0.042911 0.174707 0.044634 -0.02615 0.072514 -0.009728 -0.013982 0.005768 0.075064 -0.056028 0.009205 0.043586 -0.017308 -0.041921 -0.027783 0.047838 -0.132357 0.015086 0.016548 -0.084972 -0.124844 -0.059644 0.041226 -0.021525 -0.018458 -0.122332 -0.008651 0.000218 -0.036552 0.038109 0.04094 -0.002609 0.015794 -0.009129 -0.017346 -0.053548 -0.051228 -0.00923 0.073437 -0.054525 0.009935 0.018082 -0.012539 -0.013772 0.059658 -0.054104 0.04287 -0.012174 -0.012148 -0.03736 -0.169707 0.097158 -0.014298 0.070236 0.020021 0.04969 -0.065918 -0.002525 0.014954 0.033207 -0.042937 0.086221 0.093432 0.003792 0.010403 -0.09059 0.01991 0.09292 0.031494 0.033462 0.09944 0.029433 0.064639
woods -0.026683 0.097299 -0.06425 -0.075186 -0.048086 0.030707 0.13034 -0.020067 -0.1268 0.148118 -0.07779 0.005353 -0.138483 -0.024381 -0.065391 -0.050892 0.065876 -0.027565 0.073831 0.03371 0.016401 0.023204 0.066909 0.017034 -0.111257 -0.020968 0.063243 -0.016893 -0.029894 0.015806 -0.043284 0.062814 0.000646 -0.015334 0.070706 0.042226 0.010404 -0.015251 -0.066199 -0.062296 -0.06107 0.015015 0.036136 -0.033554 -0.000456 0.000865 -0.020753 -0.113031 0.005167 0.084095 -0.011773 0.032394 0.042037 0.004985 0.02702 -0.126899 -0.018824 -0.055287 0.036147 0.040423 0.015493 0.115992 -0.037991 0.112402 -0.058592 0.039045 -0.020287 -0.106943 -0.018098 0.011087 0.020445 -0.031389 0.089044 0.124038 0.004266 0.147715 -0.019192 0.020731 -0.033467 -0.079638 0.07779 -0.046908 -0.006788 0.08869 -0.053182 0.009881 0.034259 0.141753 -0.029061 0.055514 -0.062289 -0.015358 0.043129 -0.045923 -0.011907 0.058518 0.081699 0.01153 -0.0875 -0.012394 -0.003117 0.035416 -0.026193 -0.020398 -0.048941 0.085782 0.029913 0.051596 0.112659 -0.055271 0.013586 0.009051 -0.029086 -0.09224 0.017812 -0.052593 0.037732 0.024524 -0.050782 0.096046 0.000737 0.01721 0.038475 -0.031449 -0.026975 -0.035262 -0.007394 0.016178 -0.055091 0.036472 0.138781 -0.003574 -0.0022 0.015843 -0.038611 -0.000476 0.074178 -0.011071 0.055996 -0.003893 -0.068055 0.026386 -0.088264 0.046164 0.020462 -0.064065 0.031221 0.002118 0.039565 0.014894 -0.106421 0.028433 -0.083586 -0.031012 0.036167 0.107455 0.067561 -0.001306 0.092767 0.143834 0.03206 0.114251 -0.132817 0.088668 -0.017928 -0.005149 -0.02514 -0.046434 -0.040766 0.014621 -0.049722 -0.001161 -0.102178 0.097047 -0.01264 -0.017561 0.061073 -0.139827 0.098277 -0.0906 -0.043444 -0.01452 0.070831 0.109257 -0.085929 0.072312 -0.033706 -0.037196 0.062001 0.034087 -0.034654 0.064432 -0.057349 0.056863 -0.032859 -0.021547 -0.008253 -0.036208 0.017319 -0.052019 -0.031448 0.094742 0.009276 -0.032629 0.024219 0.059177 0.0018 0.079733 0.115557 -0.084932 0.013011 0.040386 0.047532 -0.033106 0.045722 0.019316 0.018872 0.003631 0.044327 0.002538 -0.011816 0.032512 0.023065 -0.05235 -0.087098 -0.023407 -0.05718 0.011157 -0.075929 0.125656 0.050866 -0.068273 -0.060184 0.037438 0.005175 0.049425 -0.01197 -0.068186 0.017602 0.073427 -0.046717 -0.006646 -0.023525 -0.009432 -0.069712 -0.042088 0.026382 -0.011631 -0.031884 0.007455 0.088098 -0.025372 -0.030193 0.09049 0.013885 0.010359 0.050913 -0.042707 0.076208 0.016597 0.021137 0.055512 0.064559 0.064931 0.05834 0.00834 -0.085554 -0.065746 -0.07105 -0.019224 -0.031065 -0.00832 0.080249 -0.038263 0.039158 0.031165 0.012732 0.063584 -0.043341 -0.002328 -0.085323 0.04389 -0.030797 -0.049783 0.109339 -0.047531 -0.006541 -0.082441 -0.006048 -0.040611 -0.054316 -0.013344 0.034257 0.023186 -0.048544 0.082202 -0.017047 -0.032764 0.032098 0.011275
clotted 0.063051 -0.019566 0.056879 -0.016077 0.000121 -0.083635 -0.02148 -0.052457 0.063477 -0.072675 0.062068 0.018108 -0.097796 0.003436 0.020799 -0.042471 -0.012057 -0.087179 -0.020544 -0.041567 -0.034713 -0.084898 -0.090875 0.094331 -0.008001 0.002301 0.051315 -0.007755 -0.014254 -0.118508 0.035496 0.057588 -0.043077 -0.031576 -0.038853 0.041494 -0.008385 0.060338 -0.008335 0.098765 -0.037726 0.002021 -0.029667 0.116106 0.018794 0.043175 0.136279 -0.010038 0.060064 0.018413 -0.024069 0.051982 -0.019178 0.050248 0.027056 -0.019242 -0.009487 -0.067969 -0.053359 0.024746 -0.061004 0.011027 0.010238 0.022997 -0.057004 0.042379 0.021454 -0.052697 0.044293 0.037507 0.148686 0.019465 -0.024404 -0.036072 -0.029973 -0.074848 -0.005145 0.03051 -0.039462 -0.097546 0.034442 0.06586 -0.025533 -0.054244 0.032611 -0.074843 0.17765 -0.006457 -0.062706 -0.019926 -0.021987 0.05132 -0.014558 0.0655 0.047987 0.138997 -0.103719 0.03073 -0.049901 -0.007183 0.043279 -0.066037 -0.003022 -0.015934 -0.038328 -0.249201 -0.079132 -0.009182 0.067234 0.108437 -0.053837 0.014845 0.037375 -0.039631 0.053718 0.103893 -0.062562 -0.073593 -0.008733 0.005332 0.004474 0.016508 0.016665 0.013768 0.036375 0.009568 -0.039932 0.039856 0.006193 0.019181 0.017566 -0.033761 0.06061 0.097451 0.009309 -0.022558 -0.020476 0.077581 -0.010789 -0.088426 -0.011434 0.120383 -0.033718 0.006251 0.023457 -0.032939 -0.020386 -0.049462 0.033879 -0.027679 0.087188 -0.01447 0.068135 -0.011566 -0.055462 -0.08138 -0.015492 -0.023322 0.0882 0.012869 -0.089064 0.059929 0.084191 0.032655 0.081086 0.023208 -0.031341 -0.027357 -0.038207 0.016052 -0.055157 -0.136533 -0.033289 -0.02983 0.006431 0.067055 0.01892 -0.007964 0.019484 -0.052334 -0.064471 -0.083396 0.00208 -0.05523 0.023211 -0.019772 -0.098174 -0.051944 0.033272 0.003645 -0.010284 -0.054912 0.026557 0.024664 0.016186 0.047888 0.103918 0.053429 -0.06067 -0.069099 -0.037447 0.024077 0.040159 -0.059481 0.040391 0.092726 -0.034686 0.044876 -0.048746 -0.067036 0.031768 -0.018242 0.00554 -0.01475 -0.11958 -0.113713 -0.02929 -0.031433 0.090669 0.033463 0.001548 0.022116 -0.021606 -0.05217 -0.002444 -0.017468 -0.00463 -0.041556 -0.06856 0.025021 0.010298 -0.062799 0.050661 -0.087801 -0.016459 0.01358 0.018831 -0.136711 -0.01221 -0.078007 -0.047013 -0.023033 -0.035482 -0.118512 0.056813 0.06822 -0.084103 -0.116501 0.047784 -0.107073 -0.090452 -0.065786 0.021257 -0.039855 0.017799 -0.017641 0.059461 0.001787 -0.011341 -0.002845 -0.045067 -0.02701 0.016515 0.110737 0.056189 0.085694 -0.033483 0.02625 -0.042172 0.00352 0.065097 0.026362 0.029896 0.056412 -0.069295 0.120763 -0.040378 -0.056523 0.050236 -0.02849 0.076136 -0.00946 -0.021362 -0.040909 0.079723 0.009727 -0.020948 -0.087226 -0.085832 -0.090256 0.053485 -0.074132 -0.003179 -0.118917 -0.053489 0.030568 0.016164 -0.08318 -0.057674 -0.031482
spiders -0.07729 -0.061748 -0.108028 -0.062201 -0.071013 0.073627 -0.074994 -0.00561 0.017768 0.021472 -0.091679 0.015822 0.033843 -0.008252 -0.024585 0.007149 -0.007634 0.030308 -0.008557 -0.033266 0.045941 0.065885 -0.078142 -0.031721 -0.096004 -0.006263 0.020494 -0.048651 -0.095721 -0.064599 0.029356 -0.041025 -0.017741 -0.001053 -0.05771 7.6e-05 0.139152 0.032952 -0.075682 0.004828 0.059437 -0.004272 -0.041655 0.074011 0.127694 0.017577 0.073568 0.055306 0.078029 0.022059 -0.077992 0.029121 -0.068528 0.010967 0.027201 0.069442 -0.116604 -0.036562 0.063665 0.080209 0.050209 0.037931 0.007205 -0.044115 -0.006281 0.017031 -0.066946 -0.00199 -0.001393 0.051979 -0.022603 0.047696 -0.035748 -0.042858 -0.006392 -0.002508 -0.017603 -0.008852 0.026763 -0.035817 -0.003726 0.037631 0.064381 -0.039807 0.036313 -0.080058 0.070479 0.016199 0.04948 0.035746 0.039949 0.033797 0.001532 -0.0275 -0.042789 0.091357 -0.004739 -0.033752 0.040744 -0.029112 0.001058 0.105395 0.150745 0.011047 -0.047809 -0.207693 -0.006986 0.009079 0.044784 0.013158 0.079973 0.043978 0.005161 -0.034478 -0.008809 -0.029312 -0.056776 -0.077006 -0.009711 0.0722 -0.072676 -0.027121 0.041263 -0.188353 -0.089537 -0.052685 0.171221 0.016352 0.008871 0.048733 -0.051421 0.017071 -0.051581 -0.004444 0.036987 -0.003148 -0.038396 0.03017 0.03868 0.068795 -0.173835 0.027271 0.051299 -0.041988 -0.005009 0.097181 0.043863 0.041004 -0.059167 -0.022056 0.028798 -0.041511 0.05081 0.02463 0.012843 0.041818 0.011508 -0.12001 0.029357 0.030789 0.028111 -0.129672 -0.060026 -0.046514 0.030558 -0.006008 -0.037047 -0.003838 0.07176 -0.003889 0.062937 0.032776 -0.021399 0.055869 -0.043877 0.024331 0.07642 0.022691 -0.017377 -0.033549 0.014849 0.025929 0.041853 0.02193 0.024651 -0.046799 0.014219 -0.067959 -0.023951 0.018254 0.030678 0.005699 -0.022183 -0.001934 0.00062 -0.024519 0.025178 0.039142 0.061756 -0.083946 -0.021187 -0.054872 -0.05116 0.045964 0.053969 -0.03375 0.040297 0.040506 -0.048935 -0.098248 0.099921 0.055421 0.004182 -0.014238 -0.100433 -0.015705 0.011166 -0.04318 -0.072351 -0.038775 0.000533 -0.032246 0.050557 -0.105515 0.057095 0.083765 -0.088697 -0.016497 -0.024398 0.076118 0.018175 -0.01609 -0.12597 0.025507 0.048452 0.013099 0.015834 0.069849 0.087202 -0.036167 -0.009295 0.030159 -0.068959 -0.039432 -0.038392 -0.154557 0.008216 0.103269 -0.000885 0.013221 0.002878 -0.020619 -0.00766 0.067834 0.066123 -0.012431 -0.007429 -0.021186 0.102448 0.00386 -0.041273 -0.043663 0.011841 -0.076723 0.119314 0.011545 0.033127 0.005335 0.023159 0.097106 -0.122072 -0.110179 -0.086974 -0.034315 0.011354 -0.016107 -0.058552 0.012215 -0.021732 -0.085794 0.113322 -0.013841 -0.073252 -0.102004 0.021288 -0.09278 0.005223 -0.006587 0.061901 -0.016286 -0.103338 -0.040486 -0.040216 0.015942 -0.063264 0.129694 -0.031946 -0.052703 -0.048161 0.035024
francesco 0.009467 -0.062653 -0.010845 0.032721 0.00392 0.020977 -0.003326 0.031068 -0.050923 0.153248 0.093033 0.096764 -0.067524 -0.01762 -0.027579 -0.006826 -0.123553 -0.027926 0.078826 -0.0091 0.038472 -0.005186 -0.012889 -0.065998 -0.018227 0.007167 -0.052355 0.028474 0.052578 -0.006334 0.036539 0.070085 0.115053 -0.024198 -0.029765 -0.062586 -0.049958 -0.132068 0.094994 0.008836 0.072482 0.050557 0.024001 -0.039835 0.031199 -0.084415 -0.009947 0.103163 -0.069241 0.060005 0.062981 -0.081275 -0.051755 0.100969 0.033342 -0.029181 0.000311 0.042505 -0.084756 -0.093594 0.014941 0.006735 -0.031408 0.048209 -0.056872 -0.02116 -0.005262 0.016251 -0.059772 0.005708 -0.014763 -0.03323 -0.002251 0.019016 -0.021037 0.020427 -0.127374 -0.019429 0.029404 -0.130088 -0.005447 0.055668 0.045511 -0.018193 -0.145641 0.029688 -0.113791 -0.087927 -0.01185 0.021765 -0.06313 0.017938 -0.018404 -0.037754 0.041952 -0.083566 -0.011987 0.015167 -0.073631 -0.036455 -0.073251 -0.057686 0.035123 0.096099 -0.059533 0.203288 -0.062275 -0.008636 0.033824 -0.052835 0.01562 -0.108955 0.058976 -0.045222 0.014483 0.036543 -0.023811 -0.097818 -0.021487 -0.046969 -0.025267 -0.055218 0.04161 -0.031712 -0.083406 0.077593 0.008625 -0.018795 -0.029222 0.0191 -0.020536 0.018432 0.054238 0.077055 0.007368 0.001349 -0.05468 -0.044914 -0.027046 0.048931 0.008199 -0.079069 -0.033005 -0.039196 0.030488 -0.038428 0.006155 0.04212 -0.076042 0.017499 0.1209 0.020938 -0.047212 -0.028738 -0.009395 0.062444 -0.027652 0.017561 -0.042715 -0.038546 -0.040163 -0.062488 0.004924 -0.060927 -0.027231 0.004939 -0.031912 0.067593 0.108725 -0.035378 0.009001 -0.031046 0.023829 0.035666 0.040702 -0.072357 0.028229 -0.067433 -0.0438 -0.069648 0.026673 0.040836 -0.00235 0.086636 0.014594 -0.119715 0.042104 0.08474 0.076163 -0.113078 -0.059627 0.044209 0.02283 -0.044442 0.000692 0.010637 0.034994 -0.026462 -0.015958 0.004106 -0.119773 -0.009315 -0.030645 -0.001766 -0.038141 -0.009351 -0.017521 -0.059015 -0.145142 0.021084 0.023549 -0.030483 -0.067902 -0.046031 -0.060969 0.073569 0.151252 -0.001722 -0.107017 -0.011367 0.099412 -0.004088 0.057579 0.02868 0.063637 -0.129532 -0.052243 -0.032406 -0.016561 -0.0118 0.010946 0.002956 0.004297 -0.053359 -0.055701 0.061683 0.037212 0.048102 -0.058281 -0.105572 0.04186 0.111675 -0.085922 -0.015763 -0.002611 0.011009 0.045954 0.012647 -0.023974 -0.045541 0.033065 0.005007 -0.08449 0.065214 0.016852 -0.089917 -0.03142 -0.107849 0.022714 -0.061253 0.045024 0.033927 -0.029768 0.065112 0.028963 0.03749 0.021991 -0.02355 -0.187994 -0.103605 -0.088942 -0.016946 -0.067192 -0.037483 0.020156 -0.007923 0.068421 0.031043 0.039742 0.048626 0.059604 0.031183 0.081665 0.024129 -0.00558 -0.016816 0.041762 -0.025465 -0.07503 -0.009399 0.096188 0.004669 -0.046606 0.044581 -0.049403 -0.022304 -0.03036 0.054585 -0.020156 0.072517
woody -0.028308 0.070203 -0.134237 -0.04074 -0.00256 0.109495 0.130885 -0.116605 -0.082513 0.032932 0.080774 -0.073077 -0.073899 -0.075463 -0.04869 -0.030402 0.125011 -0.065075 0.102944 0.009908 -0.032623 0.039237 0.049646 0.088963 -0.081982 -0.069371 0.120782 0.041254 -0.002166 0.013185 -0.018716 0.063575 -0.046655 0.07259 -0.014259 0.06065 0.011373 0.007464 -0.022011 -0.044079 -0.019629 0.014414 -0.019131 -0.076502 0.01683 -0.034199 -0.028215 -0.111178 -0.053872 0.026974 0.001339 0.00104 0.106698 -0.023309 0.038175 -0.117398 0.014243 -0.054441 -0.036431 0.079236 -0.051515 0.111917 -0.008177 -0.026256 -0.070462 -0.069475 -0.054785 -0.034165 -0.071108 -0.021653 0.036183 -0.038271 0.015393 0.102114 -0.004579 0.088165 -0.030347 0.038099 -0.008645 -0.161063 0.051688 0.004865 -0.014906 0.096946 -0.111564 0.058583 0.024012 0.01647 -0.044099 -0.00874 -0.008068 -0.030315 -0.010864 0.045885 -0.061166 0.086393 0.01688 -0.02911 -0.057243 0.003924 -0.068018 0.102732 -0.109485 -0.044432 -0.09781 0.09934 0.032461 0.072566 0.066972 -0.049831 0.05026 0.056026 0.007695 -0.051971 -0.004204 -0.006847 0.043857 -0.002648 -0.021358 0.07824 0.029379 -0.017644 0.018935 0.009698 0.021099 0.026884 0.069408 -0.027227 -0.057711 0.031503 0.115738 -0.07868 -0.032369 0.068087 -0.028781 0.013024 0.040944 -0.087981 0.064218 0.064912 -0.091005 -0.055309 -0.098279 -0.019637 0.00562 0.054021 -0.016955 -0.045017 0.017232 0.00966 -0.043991 -0.031394 -0.020636 -0.073557 0.097445 0.065754 0.00754 0.036455 0.081681 0.056408 0.047832 0.007294 -0.093569 0.114954 -0.046905 0.039837 0.069111 -0.025235 -0.005525 0.056988 -0.066988 -0.031633 -0.062033 0.082804 -0.05803 0.031428 0.064708 -0.075809 0.043678 -0.05038 0.02125 0.06021 0.052174 0.131125 0.003963 0.002657 -0.057013 -0.055652 0.079781 0.019462 0.053442 0.055028 -0.019716 -0.009883 -0.005887 -0.011376 -0.008351 0.016815 0.079275 -0.005007 -0.003385 0.05476 -0.019437 0.058043 0.043 0.011001 0.014262 0.054327 0.056121 -0.007677 -0.007637 0.011276 0.061572 0.025541 0.071487 0.071994 0.027709 0.069846 0.002401 -0.037083 -0.003606 -0.057952 0.154071 -0.083909 -0.034203 0.047434 -0.063749 0.041253 -0.076351 0.022603 0.044991 -0.023884 -0.094057 -0.018831 0.008772 0.032296 -0.0124 -0.015478 0.036801 0.106024 0.015961 -0.056309 0.033458 -0.078551 -0.114348 0.045451 0.027589 -0.108396 0.015431 -0.018365 0.074305 0.016595 -0.021126 0.019403 -0.024341 0.028435 0.057228 -0.031994 0.120148 -0.034703 -0.004121 -0.066038 -0.015886 -0.019855 0.022965 0.003392 -0.116763 0.000379 -0.032517 0.005849 -0.004111 0.041141 -0.002338 -0.070135 0.025573 0.02041 0.036288 -0.005398 -0.07386 0.003262 -0.136868 0.00977 -0.063558 -0.03138 0.134446 -0.108433 0.02534 -0.006539 -0.070968 -0.030803 -0.018099 -0.042482 0.007742 0.02657 -0.025818 0.028269 -0.014408 -0.068088 -0.067749 0.054119
trawling 0.065852 -0.053226 0.034207 0.050797 0.000802 0.030093 0.040081 -0.092852 -0.074931 -0.008544 -0.024152 -0.051201 0.028334 -0.026666 -0.091657 0.018708 -0.069448 -0.085469 0.03844 -0.045383 0.00407 -0.004352 -0.032453 0.096586 0.025903 0.09726 0.106937 -0.043974 -0.010389 0.004382 -0.014217 -0.057466 -0.093215 0.053332 -0.00879 -0.126307 0.00886 0.002555 -0.120413 0.065599 -0.049932 -0.035791 0.043705 0.025334 0.139561 -0.010209 0.071615 0.011554 0.034014 -0.040027 0.093788 -0.000802 0.099121 0.034578 -0.074425 -0.006866 -0.021452 -0.116597 0.110341 -0.015468 0.09201 -0.006692 0.006901 0.044907 0.042696 -0.080488 0.040969 0.052964 -0.038066 0.017819 -0.055068 -0.013274 0.036975 0.010788 -0.024058 -0.075357 -0.044183 0.112877 -0.061464 -0.080039 0.068929 -0.01722 -0.017985 -0.085225 0.036253 0.047005 0.061645 0.01442 0.060769 0.022953 -0.045476 0.012329 0.03419 0.069707 -0.060925 0.076103 -0.066177 0.122543 0.025298 0.004089 -0.060959 -0.012993 0.071926 -0.070564 -0.044674 -0.204459 0.012118 0.025846 -0.049038 -0.126859 0.060511 -0.044727 0.061278 -0.036665 0.057086 0.072284 -0.052984 0.035892 0.07143 0.014703 -0.076113 0.07319 0.057858 -0.042142 0.069866 -0.049249 -0.020065 -0.087986 -0.063441 0.109936 0.003978 -0.021318 -0.046695 0.006352 0.067667 -0.022471 -0.001381 0.007656 -0.01345 0.026232 -0.102961 -0.072783 0.009438 -0.074725 0.119399 -0.111352 -0.061127 -0.071801 0.027247 0.015768 0.005241 -0.006611 -0.065829 -0.028032 0.100234 -0.004399 -0.017776 0.042753 0.037113 0.04384 -0.034951 -0.017017 -0.063739 0.080298 0.033069 0.054622 -0.040573 0.094295 0.012035 0.025787 0.036708 -0.026395 -0.065702 0.015596 0.004625 0.000495 5.4e-05 0.021523 -0.042517 0.052918 -0.078262 0.051737 -0.069757 0.057701 -0.0532 0.031285 0.012927 -0.091052 -0.025843 -0.050295 0.008042 -0.051552 0.051048 0.013727 -0.027677 -0.016441 0.077872 0.069933 -0.092894 -0.07218 0.021519 -0.046918 -0.009701 0.028149 -0.010012 -0.0466 0.007616 -0.015805 0.047166 0.033723 -0.041234 -0.089575 -0.043399 0.058303 0.003305 0.031978 -0.033581 0.074259 0.003045 0.046869 0.053815 0.069599 0.069462 -0.044246 -0.063602 0.004865 -0.066002 -0.064016 -0.01143 -0.06598 0.027403 0.045425 0.030244 0.022722 0.154956 0.040603 0.013619 0.103187 0.040689 0.000843 0.050401 0.001214 0.067911 0.00909 -0.062343 -0.093088 -0.039241 -0.00024 0.012671 0.073416 -0.057552 -0.15256 -0.043939 -0.054357 0.00653 -0.005926 -0.032819 -0.059231 0.043581 0.002904 -0.021259 0.031997 0.067787 -0.064526 0.087343 -0.005349 0.03416 0.058211 -0.035238 -0.032804 0.031082 -0.011596 0.139079 -0.000399 0.086367 -0.075429 -0.028038 0.008485 -0.054249 0.031492 0.071943 0.030739 0.021292 -0.008461 0.079691 -0.03965 -0.051653 -0.046945 0.06006 -0.00803 -0.048559 -0.049066 0.081125 0.005929 0.013542 -0.036336 0.060578 0.043412 -0.147314 -0.080236
tingly 0.045065 -0.024353 -0.053306 -0.00729 0.000887 -0.005741 -0.00673 0.043388 0.042411 -0.051971 0.110452 -0.021835 -0.04305 -0.106864 -0.031534 -0.007729 -0.045162 -0.070919 0.021782 0.01786 0.074519 0.038014 0.023555 -0.055787 -0.034054 -0.049309 0.095386 -0.031178 0.000845 -0.093836 -0.000349 -0.072193 -0.075872 -0.019379 0.041742 0.101087 -0.023999 0.051475 -0.069661 0.002325 3e-05 -0.001082 -0.0372 -0.08028 0.077425 0.143512 0.017309 -0.063883 0.032544 -0.013752 0.051044 -0.038151 -0.032925 0.02516 0.061774 0.03365 -0.041141 -0.095842 0.025169 0.018793 0.002245 0.047328 -0.029474 -0.0567 -0.080157 -0.044835 0.045827 -0.004897 -0.082328 0.082616 0.097028 0.005174 0.047291 -0.02003 0.072591 0.019595 0.067106 0.004273 -0.038828 -0.031312 0.030304 -0.010267 -0.026817 0.048962 0.010621 -0.076827 0.194802 -0.019606 0.00221 -0.063219 0.037163 0.013355 0.012425 -0.0247 -0.009494 0.019958 -0.061352 -0.079649 -0.072852 -0.041783 -0.008466 0.044793 -0.035331 -0.039803 0.103181 -0.224524 0.023246 -0.131399 -0.008905 -0.051411 -0.042288 0.001984 -0.069867 0.00933 0.031658 -0.008057 -0.015832 -0.019318 0.049473 -0.043986 0.086779 0.023144 -0.004935 0.056534 -0.017557 0.010722 0.024922 -0.01804 0.092165 -0.002 0.01546 -0.148404 -0.073652 0.036732 0.055113 0.061303 -0.067622 0.054085 -0.052308 -0.013407 -0.157604 0.06527 0.006068 -0.006101 0.007578 0.033291 0.053493 0.040942 -0.044248 -0.04778 0.000202 0.068076 0.097471 0.105209 -0.01051 -0.014684 0.035067 -0.018241 0.024232 -0.078591 -0.035388 -0.025774 0.109639 0.09345 0.024553 -0.12519 0.030472 -0.042938 -0.030648 -0.047384 -0.0052 -0.056635 -0.001872 -0.034979 0.040255 -0.014232 0.0652 -0.11797 0.011556 -0.078953 0.063294 -0.054252 0.010431 0.026806 0.066424 0.017737 -0.0007 0.010495 0.091539 0.005245 0.013744 0.005015 -0.019907 0.048111 0.033051 -0.051399 0.092104 -0.052599 0.066057 -0.137568 -0.104588 -0.010352 -0.06317 0.027197 0.025363 0.092588 0.013 -0.001815 -0.050305 0.048578 -0.136536 -0.029352 0.089773 -0.045752 -0.108945 0.055191 -0.061851 -0.084137 0.072474 -0.049463 0.014464 0.03716 -0.039012 0.019779 0.012948 -0.002902 0.002874 -0.036045 -0.024432 -0.044164 0.029057 0.017777 0.002364 -0.053947 -0.046887 0.087817 -0.106259 0.011374 0.0234 0.10483 -0.006734 -0.024072 -0.055907 -0.001466 -0.082961 -0.086077 -0.086474 0.006663 0.036568 0.015604 -0.072283 -0.054122 0.009685 0.092346 -0.040459 -0.037847 0.045718 -0.033444 0.015378 0.140211 -0.050061 -0.098503 0.036609 0.001552 0.135605 0.097435 -0.048808 0.032809 -0.031494 0.047801 0.082112 -0.028853 -0.085516 0.009892 -0.071388 -0.024925 0.034774 -0.01427 0.022336 0.09091 -0.017151 -0.095171 -0.082231 -0.005913 -0.084181 -0.036734 0.032228 -0.001603 0.022343 -0.005411 0.03323 0.007562 0.011374 -0.035384 -0.034255 -0.025996 -0.00642 -0.03261 0.038886 0.025198
comically -0.020679 -0.098007 -0.005918 0.046425 -0.017967 0.036796 0.023027 0.001063 0.007333 0.163392 0.1193 -0.007302 -0.054118 -0.084083 0.04576 0.025421 0.006096 -0.188516 0.01459 -0.086156 -0.083828 0.011289 0.023114 -0.058367 -0.005407 -0.014702 0.02221 -0.035645 -0.025885 -0.112014 -0.093039 -0.042967 -0.102299 0.038669 -0.017916 -0.008399 -0.008613 0.064505 -0.067709 0.083685 0.063348 -0.051691 0.041967 -0.02688 0.08031 -0.041393 0.028745 -0.047937 -0.007154 0.0204 0.025451 0.013982 -0.06266 -0.000171 -0.040796 0.01454 0.020328 -0.027263 -0.002875 -0.057171 0.034958 0.03226 -0.017229 -0.091986 -0.057378 -0.017352 -0.083228 -0.032969 -0.064264 0.029978 0.023563 -0.059439 0.059486 -0.003304 -0.026025 0.034609 0.010254 -0.029811 -0.018348 0.023313 -0.058823 -0.001699 -0.047898 0.040166 -0.003718 -0.075041 0.088561 -0.073471 -0.047067 -0.03857 -0.085365 0.021635 0.002405 0.061225 -0.00893 0.026309 -0.052941 0.030805 0.072077 -0.071868 -0.051257 0.003157 -0.001406 -0.007688 -0.005626 -0.316514 -0.019184 -0.035073 0.055478 0.011989 -0.006856 0.011892 -0.040615 -0.017878 -0.042071 -0.105529 -0.053157 -0.009312 0.003443 -0.01156 0.010089 -0.051422 -0.038027 0.075824 -0.027271 -0.035882 0.011682 0.003272 -0.055911 0.041156 -0.000576 0.002889 -0.027034 0.024671 -0.047562 -0.003515 -0.091218 -0.017835 -0.025945 -0.028815 -0.19322 0.027537 -0.070287 -0.000694 0.006695 -0.021113 0.068522 -0.051711 0.079151 0.067424 0.050223 0.083958 -0.023061 0.001167 0.107244 -0.028151 -0.02687 -0.027817 0.033868 -0.065237 -0.035512 -0.073932 0.071104 0.022291 -0.016318 -0.019373 -0.090184 0.000233 -0.040224 0.016152 -0.042543 -0.006884 0.043465 0.041484 0.014143 -0.140001 -0.011374 -0.036539 0.001304 -0.013145 0.034137 -0.059252 0.031794 -0.001906 0.022954 0.024401 0.09297 0.001405 -0.059677 0.008742 0.00659 -0.013157 0.0899 0.007018 -0.151269 -0.064285 -0.019227 -0.077641 -0.039016 -0.006595 -0.007716 0.020605 -0.069348 0.026923 -0.089247 0.020577 0.024419 0.00858 0.021392 0.0247 0.017461 0.026664 0.006512 -0.086091 0.016757 0.052983 0.128312 0.092576 0.036659 -0.054301 0.033972 0.020053 -0.002443 -0.053608 0.024046 -0.167035 -0.015767 0.018628 0.006728 -0.023828 0.019184 0.04947 0.073023 0.031553 0.061404 0.037164 -0.052557 0.034823 0.047737 -0.013541 -0.056333 0.024492 -0.026519 -0.028103 -0.077146 0.021539 0.024065 -0.08292 0.092929 0.036969 -0.076852 -0.0683 -0.026263 0.049643 -0.012401 -0.161616 0.073505 0.06505 0.003214 0.035585 -0.013118 0.112933 0.01526 -0.114021 0.042657 0.080541 -0.007342 0.008331 -0.088038 0.046544 -0.061582 0.002843 -0.013151 -0.028833 -0.035689 0.024695 -0.03839 -0.062305 0.007171 0.006264 0.092066 0.159556 -0.015989 0.020663 -0.046525 0.073422 -0.040876 0.01854 0.003949 -0.033385 0.052975 -0.000173 0.060092 0.000732 -0.051723 0.113682 0.069642 0.041878 0.09936 -0.06308
kalmar 0.113802 -0.052621 -0.010167 0.029643 -0.0126 -0.039039 -0.084901 -0.057576 0.045124 -0.027097 -0.024546 -0.052781 0.006827 0.010657 -0.05634 -0.111974 -0.007525 -0.151936 -0.008021 -0.032655 0.097467 0.058848 -0.020064 -0.028269 -0.095946 0.060136 0.029375 -0.06159 -0.089282 0.085181 0.028308 -0.021749 -0.043881 0.028382 0.011928 0.076809 0.110227 3.5e-05 -0.049014 -0.101424 0.040742 -0.004236 -0.141668 0.09106 0.109495 -0.076284 0.014252 -0.010757 0.025558 -0.114653 -0.006318 -0.027636 0.040716 -0.033077 0.078467 -0.028588 -0.010152 -0.094768 -0.066174 0.044026 0.057376 0.060229 0.020289 -0.008436 0.036252 0.055606 0.057299 0.055224 -0.054456 0.003217 -0.064896 0.083543 0.116582 0.026769 -0.027316 0.022862 -0.013605 0.056859 -0.018542 0.031972 0.057102 -0.027647 0.082168 0.033292 -0.027765 0.024256 -0.043761 -0.056174 -0.0542 0.053027 -0.079422 -0.018348 0.017418 0.050297 0.07204 -0.003534 -3.6e-05 0.061399 0.030407 0.083689 0.03907 0.002275 -0.00627 0.043367 -0.118239 0.011671 0.053841 -0.04746 0.005733 -0.03549 0.000217 -0.023629 -0.067557 0.037665 -0.007563 -0.07515 0.032671 0.11858 -0.026111 -0.019115 0.0218 -0.062612 0.083035 -0.012654 0.00488 -0.038587 0.004523 0.00673 0.080994 -0.017701 -0.041502 0.043266 0.018139 -0.02417 0.027513 0.068959 -0.0314 0.017476 -0.073812 -0.078761 0.11623 0.036615 -0.037631 0.050537 -0.052981 0.030043 -0.054351 -0.119661 0.084897 0.001507 -0.084259 0.036595 -0.007629 -0.117313 0.043835 -0.089817 0.026735 -0.013494 0.051813 0.094903 0.104888 -0.022501 -0.029422 -0.027279 0.123845 0.021131 -0.002316 0.037072 -0.068099 0.026079 0.017688 0.096996 -0.123482 0.012007 0.02763 0.001511 0.049097 -0.014295 0.003788 0.026645 0.09118 0.060515 -0.012503 -0.063773 -0.133937 0.122933 0.007993 -0.062243 0.006575 -0.005076 -0.013922 0.058951 0.101393 -0.12177 0.048858 0.026334 -0.033558 -0.000332 -0.005021 -0.016842 0.071802 -0.025336 -0.01911 0.054367 -0.017174 -0.06093 -0.029997 0.028332 0.020492 -0.051163 0.018115 -0.021868 0.070287 0.01471 0.087252 0.10226 0.091052 0.042823 0.066339 0.031317 0.004269 -0.021147 0.031938 -0.012767 -0.069119 -0.002294 0.048784 -0.072132 0.03402 0.032341 0.018818 0.009761 -0.019044 -0.085304 -0.017592 0.021004 -0.051502 0.03796 -0.010656 -0.024844 0.052789 0.004304 -0.051834 -0.054103 0.006218 -0.000541 -0.006251 0.011148 0.035181 0.045345 0.025895 -0.092577 0.110596 0.039589 0.012267 -0.048238 0.012492 -0.002014 -0.012069 -0.104319 0.040908 -0.042396 0.066462 0.076112 -0.031074 0.011972 0.009625 0.00615 -0.105134 -0.020537 0.000646 -0.112241 -0.039965 0.029365 -0.024365 0.017003 0.13209 0.089459 0.000312 -0.143018 0.031149 0.092933 -0.013666 0.021601 0.137659 0.044201 -0.020858 -0.033807 0.056172 -0.007757 0.027783 0.012464 0.056008 -0.049844 0.088934 -0.020291 0.183343 0.056992 -0.034654 0.021694
localized 0.030586 -0.064903 0.003002 0.0246 0.056287 0.004382 -0.01527 -0.015556 0.012465 0.20941 0.04415 0.081736 0.007685 -0.026999 0.00103 -0.045501 0.088996 0.189485 0.057255 -0.060777 -0.012766 -0.065673 -0.043787 0.032138 0.058808 -0.013722 0.000464 0.024011 -0.048274 0.048638 0.000762 -0.000351 0.0045 -0.028579 -0.06924 0.005918 -0.028553 0.001954 0.100076 -0.042628 -0.083715 0.014424 0.01586 -0.057426 -0.018132 0.015875 0.086523 -0.074259 -0.015703 -0.043962 -0.026657 0.052595 -0.073422 0.103763 0.059684 -0.048797 0.058444 -0.01439 0.000203 0.093737 0.006251 0.054243 -0.070165 0.087884 -0.01637 0.03127 0.023631 -0.014587 0.027119 0.003771 0.091406 0.033024 -0.006358 -0.001971 0.05147 -0.151723 -0.015262 -0.083791 -0.072109 -0.054224 0.007982 0.041208 -0.013786 -0.075981 0.0108 -0.073998 -0.080621 0.02745 -0.080255 -0.104676 -0.011227 -0.050655 -0.070979 -0.009685 0.102958 -0.028155 0.021914 0.050461 -0.078142 -0.037834 -0.115737 -0.026054 -0.058233 0.003967 0.004829 -0.21848 -0.034136 0.011161 -0.075382 0.029388 -0.101439 -0.073365 0.063884 0.044017 -0.043066 -0.057203 -0.00108 0.089821 -0.158927 -0.009654 -0.026498 -0.015255 0.096766 -0.046387 0.003246 -0.048399 0.029637 0.003651 -0.070016 0.041518 -0.015448 0.033954 0.00387 -0.009879 -0.002423 -0.09307 0.031914 -0.064801 -0.05949 -0.006484 0.065032 -0.005029 -0.09759 -0.081102 0.065864 -0.006645 -0.060028 -0.004449 0.045379 -0.016193 -0.003903 0.067592 -0.02326 -0.01438 -0.040488 0.054141 -0.102305 0.004868 0.007293 0.035719 0.055964 0.008147 0.113234 -0.028772 -0.040649 0.093567 -0.025584 0.001161 -0.01079 0.029102 0.059049 0.054138 -0.122984 0.076872 -0.034577 0.078637 0.044652 -0.087669 -0.025832 -0.007227 -0.000496 0.039033 0.079108 -0.044647 -0.077838 0.009535 -0.007291 0.097336 0.069622 -0.119721 -0.071218 -0.072383 0.047655 0.0323 -0.008353 0.074464 0.077522 -0.011366 -0.007666 -0.026108 -0.011957 -0.080454 -0.046586 0.133467 0.035702 0.011273 0.016213 -0.013758 0.025281 -0.073278 -0.022375 -0.098271 -0.07282 0.017856 0.001635 0.006823 0.021791 -0.083262 -0.068007 0.032087 0.063967 -0.120768 0.097976 -0.014631 0.032221 -0.044438 0.105298 -0.025284 0.065691 -0.017589 0.008606 -0.015649 0.00746 -0.029374 0.107492 0.060222 0.020244 -0.006773 0.043494 -0.034 -0.033177 0.043818 0.014085 0.032898 -0.008136 -0.042094 0.052948 -0.027238 -0.020388 -0.100946 0.005381 -0.1094 0.002959 0.086016 0.022582 0.02624 0.072385 0.094005 0.012054 -0.045322 0.021671 -0.031424 0.038025 -0.03074 -0.011968 0.049527 -0.006709 -0.012092 -0.045709 0.019554 -0.037933 -0.047463 0.010141 0.03279 -0.080811 -0.021687 0.037195 0.01489 -0.01436 0.060584 0.009116 0.081968 0.024557 -0.013515 -0.004431 -0.038289 -0.004233 -0.006249 -0.06776 -0.132092 0.008687 -0.012404 0.038383 0.124291 0.016082 -0.061521 -0.019407 -0.066173 0.034631 0.058857
tasos 0.005154 0.003509 -0.033565 -0.011641 -0.038762 0.002058 0.034825 -0.032045 -0.026832 -0.152882 -0.002096 -0.088705 0.045872 0.013746 -0.017418 -0.070866 0.056321 -0.307652 0.017023 0.026947 0.075659 0.004188 -0.000959 -0.015532 0.023364 -0.020817 0.009755 -0.029677 -0.048422 0.003032 0.039046 -0.020001 -0.05525 -0.089459 -0.033924 0.06045 -0.006748 0.011626 -0.013147 0.058695 0.076496 0.086475 -0.050353 -0.015371 -0.022045 -0.100776 0.015521 0.032491 -0.033577 -0.005396 -0.096623 0.045349 0.005113 0.121403 -0.006581 -0.085866 -0.010749 0.005922 -0.0455 -0.046412 0.08749 -0.080121 -0.042081 -0.038444 0.13377 -0.091385 -0.023391 0.016421 -0.067539 0.038746 -0.073807 0.028372 -0.050047 0.043189 0.004732 0.009665 0.033158 0.011046 -0.041498 0.030985 0.056882 -0.038594 0.005108 0.087151 -0.061929 -0.011414 0.12584 -0.114514 -0.03614 -0.035314 -0.016109 -0.079395 -0.100505 0.085898 0.013375 0.049457 0.01175 -0.060566 -0.084642 -0.008469 0.012931 0.027993 0.075675 0.046684 0.025615 -0.053498 0.071518 0.036833 -0.010688 0.039653 0.033978 -0.052341 0.000582 0.000654 0.004123 -0.051418 -0.028473 0.040288 0.053429 -0.018844 -0.00658 -0.002372 -0.010472 0.058409 -0.027332 -0.046262 -0.044224 -0.046387 -0.084259 0.046712 0.019379 0.011013 0.001157 -0.007058 0.035584 -0.073855 0.087892 -0.078478 -0.003287 0.023089 0.116534 0.030555 -0.054608 -0.056056 0.046036 0.019186 -0.034661 0.031633 -0.069133 -0.018801 0.056219 0.017749 -0.002735 -0.058172 0.057166 0.138047 0.054677 -0.128638 0.048072 0.032973 0.06245 0.053716 0.008228 0.050581 0.082017 -0.093109 -0.016118 0.073274 -0.061692 -0.096978 -0.090971 0.026714 0.068429 -0.075769 -0.04433 0.038176 -0.041567 0.003116 -0.018974 -0.001088 0.079916 -0.006213 -0.031572 -0.005958 -0.078886 -0.061447 0.026432 0.086154 -0.009166 -0.008677 -0.01888 0.042696 -0.065229 0.076967 0.058152 0.041638 -0.013551 0.08781 -0.030056 0.119161 -0.102035 0.065443 0.007302 -0.041369 0.009592 0.019381 0.030065 0.039865 -0.014889 -0.054913 0.008985 -0.037505 0.003475 0.081258 -0.079586 0.112071 0.123344 -0.064926 0.062212 -0.029252 -0.057871 0.075314 0.030368 0.038493 -0.025165 0.082759 0.028427 -0.096474 -0.014634 0.017258 -0.04399 0.003341 -0.034854 0.004721 0.081874 -0.0169 -0.032469 -0.046334 0.008276 -0.020788 0.050149 0.030924 -0.104259 -0.031941 -0.008839 -0.01503 0.091935 -0.001954 0.009203 0.020921 0.036852 -0.054994 0.064013 -0.033226 0.062796 -0.070012 0.065058 -0.090399 0.001328 -0.083756 0.101554 -0.014552 0.015498 0.041916 -0.081191 0.039733 -0.039726 0.017801 -0.055148 -0.018952 -0.018388 0.075727 -0.015788 0.027405 -0.015975 0.019363 -0.019261 -0.050834 0.073972 -0.07722 -0.004356 -0.138118 -0.084745 0.058828 0.06663 0.048576 -0.125179 0.047207 0.035869 0.010637 -0.017126 0.016462 -0.090966 -0.006968 0.054035 0.042035 -0.077645 0.067781 0.06609 0.055233
sevens 0.075882 0.007691 0.054131 -0.041661 0.033367 -0.004308 0.039565 0.096451 0.054022 0.095942 0.030443 0.066198 0.048674 0.051948 0.109351 -0.038223 -0.088796 -0.1055 0.097401 0.031433 -0.031102 0.019729 0.057557 0.006732 -0.070579 -0.001668 -0.026737 -0.075027 0.059519 0.032727 -0.017887 0.053161 0.070447 -0.011988 -0.03118 0.012749 0.03038 -0.011508 -0.016169 -0.010599 -0.072029 -0.051459 -0.002237 -0.080277 0.006456 0.013934 0.013851 0.011231 0.026467 0.007342 -0.035705 -0.024276 0.002194 -0.089328 -0.001538 0.0808 0.05325 0.13409 0.007858 0.050875 -0.042894 0.013931 0.065246 -0.047226 -0.079321 0.025664 0.016839 0.022402 0.013254 0.003948 0.145923 -0.058304 0.029964 0.018067 0.076416 0.008866 0.080082 0.010215 0.084942 -0.036485 -0.066698 0.014934 -0.022831 -0.091323 0.009572 0.004109 -0.126188 -0.018623 -0.029223 -0.038604 0.079016 0.02312 -0.006504 -0.073496 0.008718 -0.049997 0.052533 -0.024577 -0.003495 0.112817 -0.035313 -0.021946 0.031908 -0.064581 -0.069143 0.065331 -0.097295 0.124178 0.041671 0.013868 0.026204 -0.061368 -0.051375 0.094795 0.026285 -0.00086 0.075271 0.102659 -0.066479 -0.053733 0.029604 0.011069 -0.143692 -0.059468 0.016513 -0.063888 -0.060543 0.007934 -0.084893 -0.047516 0.060375 -0.002186 -0.035413 -0.065852 0.002011 -0.068905 0.076365 0.076878 -0.043081 0.030185 -0.023172 0.005038 0.047916 -0.143612 -0.060623 0.039972 0.000508 0.02507 -0.021119 -0.107611 -0.0294 -0.008553 0.026892 0.140962 -0.03949 -0.078502 -0.071185 0.03109 -0.100886 -0.017803 0.020917 -0.076925 0.068028 -0.020531 0.016984 0.070275 0.015179 0.037589 -0.08574 0.090098 -0.073749 -0.015753 -0.024958 -0.043419 -0.114527 0.052948 -0.028174 -0.03596 0.037392 0.050354 -0.030941 0.083479 0.041676 -0.123436 -0.01753 -0.057676 -0.016642 0.160841 0.006457 -0.059601 0.144338 -0.083164 0.039894 -0.057686 0.023354 -0.060388 -0.054859 -0.003615 -0.058269 -0.062229 0.100984 -0.040579 0.072356 0.101469 0.02894 -0.08044 -0.018267 -0.013624 -0.095835 -0.018882 -0.038059 0.055011 0.075567 -0.084389 -0.018358 0.031696 0.042556 -0.111565 -0.008114 0.027436 -0.049647 0.042182 -0.066902 -0.007019 -0.014618 0.086592 0.027502 -0.002866 0.007805 0.126054 0.006696 0.064932 -0.023171 0.046993 0.051774 -0.000277 -0.029304 0.04021 0.021597 -0.10921 -0.002122 0.036121 -0.041797 0.032525 -0.063067 -0.036276 0.046921 -0.032698 -0.069683 -0.051243 -0.020653 -0.003341 -0.017769 -0.014935 -0.004709 0.035641 -0.032837 0.03935 -0.012251 0.044787 0.058659 0.03613 -0.0981 0.054145 0.010347 -0.012545 -0.06093 0.071101 0.005981 -0.058842 0.060407 -0.012488 -0.024913 -0.04413 0.002585 0.080146 0.092638 0.050108 -0.047959 0.002396 0.026812 -0.031461 -0.156201 -0.029115 0.001686 -0.02507 -0.016073 0.01713 0.112656 0.034757 -0.009363 -0.069987 -0.039678 0.020859 -0.002134 0.044216 0.010251 -0.039704 0.094629 -0.082497
disobeying -0.032356 -0.051386 -0.034646 -0.043436 -0.028251 0.037049 0.023483 0.008208 -0.093528 0.120208 0.043217 0.060102 -0.076897 0.045377 -0.041636 -0.119414 -0.006843 -0.202824 0.041214 0.002496 0.053157 -0.055669 0.008801 0.022235 -0.016739 -0.047581 0.041358 -0.060465 0.018598 -0.025182 -0.096045 0.059194 -0.047463 0.017658 0.053734 0.022978 0.010123 -0.048207 0.109067 0.044025 0.010712 -0.062372 0.016329 0.021937 -0.001497 -0.006007 -0.038042 0.028308 -0.070704 -0.065255 0.000978 0.025245 -0.041552 0.09704 0.059548 0.012343 -0.089968 -0.049799 -0.01788 -0.035402 0.040589 0.000769 -0.022061 -0.054684 0.097987 0.030392 -0.058551 -0.025863 0.036896 -0.031898 -0.030352 0.018572 0.018338 -0.051504 -0.045654 -0.053891 0.085175 -0.008583 -0.023923 0.083585 -0.009198 -0.041705 -0.035815 -0.038991 0.183696 0.032812 0.106245 -0.168387 -0.100966 -0.089773 -0.075078 -0.012442 -0.007355 -0.002593 -0.056487 0.150177 0.021278 -0.069116 0.038334 0.025664 0.060179 0.055606 -0.025483 0.06759 0.001263 -0.282964 -0.046092 0.055452 0.027751 0.134514 -0.104433 0.082146 0.004748 -0.023956 -0.006707 -0.030869 0.048123 -0.049918 -0.052141 0.00198 -0.064089 0.001656 0.057652 0.11482 0.014107 -0.096368 -0.020086 -0.006729 0.096908 -0.085012 -0.00667 0.026615 -0.101333 -0.097019 -0.057226 -0.018844 -0.010967 0.066836 0.026958 0.034868 -0.040946 0.045924 0.028067 -0.049744 -0.063529 0.067216 0.018192 -0.078738 -0.095141 0.015596 -0.030636 0.014955 0.070392 -0.012368 0.059132 -0.014455 -0.10268 -0.031996 0.034909 0.119367 -0.038519 0.004332 -0.023838 0.039973 0.077848 -0.027877 -0.008434 0.073803 -0.005071 0.088975 0.05857 -0.074218 0.162959 0.026677 0.043511 0.010421 -0.028926 0.040267 -0.036963 -0.030272 -0.015316 -0.038007 -0.007659 0.058424 -0.029679 0.020213 0.05889 0.021246 0.093389 0.000456 0.042448 -0.011608 0.004731 0.071483 -0.030296 0.033091 0.059511 0.041335 0.06607 -0.005323 -0.04675 -0.00072 -0.048485 -0.042464 -0.020022 0.053179 -0.017701 0.028927 0.063956 -0.008221 0.003632 0.007052 0.017549 0.059492 -0.010115 0.01255 -0.030447 0.042887 0.003501 0.098747 -0.019813 -0.017493 0.048157 0.006791 0.010972 -0.03226 -0.011727 -0.107847 -0.012903 -0.056637 -0.031106 0.034542 0.041488 0.015899 -0.008558 0.008006 0.061285 0.015881 -0.007914 0.052605 0.00777 -0.035576 0.07643 0.030285 -0.042022 0.019369 0.02949 -0.007076 0.029813 0.000665 -0.001728 0.079067 0.054797 -0.001559 0.007441 0.030119 -0.01022 -0.008273 0.073624 -0.00535 -0.077871 0.059367 0.025376 -0.055015 -0.037054 0.071556 -0.025173 0.026999 -0.07226 -0.110189 0.022103 -0.031592 -0.020074 0.078006 -0.010756 -0.00695 0.016918 0.038228 0.055707 -0.038051 0.001199 0.029311 0.05804 -0.039841 0.01682 0.021931 0.01777 0.023627 0.079043 -0.003433 0.023058 -0.068236 0.006754 0.017976 -0.034992 0.128349 0.099376 0.141296 0.052367 -0.109096
canes -0.009924 -0.046938 -0.074861 -0.087023 -0.003813 -0.030835 0.035939 0.077108 -0.033425 0.014967 0.013682 0.0459 0.013883 -0.071543 0.019656 0.054949 0.019952 -0.046702 0.04247 0.035579 0.080918 -0.013047 -0.073478 -0.076495 -0.009147 0.032782 -0.123743 0.011861 0.045865 -0.099234 0.020927 -0.006077 -0.098083 -0.043954 0.102793 0.062851 0.049226 0.003872 0.035472 -0.069819 -0.029844 -0.012911 -0.041025 -0.034722 0.109441 0.079883 -0.041463 -0.015757 -0.021344 0.049679 -0.011274 -0.073722 -0.029164 -0.057362 -0.064442 -0.069181 0.024631 0.062392 -0.061131 0.080257 -0.018156 0.039185 0.046271 -0.070903 0.007761 -0.080969 -0.019 -0.007489 -0.017475 -0.015577 -0.004792 0.016825 0.032541 0.146628 -0.030885 0.008218 -0.002579 0.015362 -0.047953 0.033864 -0.072178 -0.043507 -0.067037 0.098231 -0.047741 0.076968 0.123455 0.041141 -0.018173 0.01417 -0.041446 0.011134 0.064714 0.029801 -0.012201 0.038938 0.045349 -0.054 -0.015817 -0.089526 0.105491 -0.045299 0.013496 -0.018305 -0.037723 -0.173338 -0.020031 0.08355 0.073152 -0.017324 -0.050524 0.03781 0.007034 -0.025951 -0.014127 0.012854 0.045196 -0.041467 -0.046145 0.009779 -0.04482 0.094375 0.050307 0.050251 0.014559 0.024567 0.056694 -0.000106 0.01959 0.081695 0.027929 0.044824 0.06628 0.022269 -0.014852 -0.042481 0.110787 0.058516 -0.040846 0.13146 -0.117007 0.007173 0.022335 0.000414 -0.028618 0.069684 0.069232 -0.063087 0.02534 0.017862 -0.043458 0.048149 0.038464 0.011039 -0.113805 0.050927 -0.077684 0.006747 0.013898 0.064787 0.042451 0.003771 -0.048922 0.016233 0.047597 0.076929 -0.033445 -0.07763 -0.084059 0.039036 0.038134 -0.048581 -0.046667 0.017434 -0.080311 0.011295 -0.013987 0.048723 0.036473 -0.005229 0.072863 0.072701 0.075342 0.064415 0.022495 0.053162 -0.035765 -0.110857 -0.067496 0.001142 -0.025902 0.059591 -0.060858 0.08037 -0.031101 -0.028927 -0.10292 -0.034925 -0.147876 0.021179 0.004505 -0.073285 -0.026847 0.05886 -0.007125 0.04427 0.126815 -0.046062 0.051859 -0.01225 0.040542 0.011064 -0.018995 -0.006334 -0.092634 -0.002634 0.06159 0.08946 0.047497 -0.047143 0.001511 0.0031 0.081152 -0.009563 -0.030248 0.050139 -0.01937 -0.03861 0.047893 0.033977 0.052203 -0.041078 -0.045866 0.034047 -0.001899 -0.02226 -0.057701 -0.028507 0.074948 0.116928 -0.060079 0.045588 -0.08038 -0.038703 -0.073564 0.051732 -0.095321 -0.031884 -0.081986 0.099689 -0.01747 0.041108 0.041301 0.052969 0.032091 0.046844 0.045625 -0.08237 0.058394 -0.116373 0.059327 0.040765 -0.028712 0.01185 -0.014846 0.122474 0.000103 -0.051116 -0.123016 -0.008188 -0.013979 -0.044426 -0.061695 0.030845 0.014082 0.016996 0.043639 0.052381 0.012252 0.040946 0.032919 -0.021603 -0.005608 0.007184 0.054328 -0.005398 0.097887 -0.032921 0.043351 -0.065212 -0.089349 -0.047262 0.032416 -0.134953 -0.155067 -0.036932 0.077157 -0.183198 0.01814 0.0612
mutters -0.047659 -0.057282 -0.076812 -0.004711 0.080116 0.069146 -0.028434 -0.019926 -0.042544 0.069633 0.162346 0.004093 -0.06281 -0.124233 0.061112 0.074065 0.061315 -0.251602 0.028969 -0.082566 -0.015137 0.051292 0.004421 -0.097699 -0.023894 -0.042491 0.052971 -0.022716 0.033054 -0.049344 -0.078414 -0.006416 -0.023693 0.0107 0.023078 -0.036395 -0.013861 0.029279 -0.023478 0.04037 0.087965 -0.053274 -0.045456 -0.069424 0.060736 0.032325 -0.022234 -0.038542 -0.055659 -0.004151 0.103874 -0.040316 -0.075509 0.001072 -0.08119 -0.017548 0.056691 -0.026624 -0.031873 -0.030893 0.031441 0.065429 0.016288 -0.12058 -0.034876 0.027655 -0.041376 0.013345 0.00731 0.097324 -0.048257 -0.072405 0.024177 -0.002467 -0.101378 -0.017058 -0.017254 -0.046102 0.014785 -0.038853 -0.078904 0.028541 -0.100785 -0.035616 0.031925 -0.027273 0.172943 -0.159042 0.039838 0.050195 -0.018358 -0.026597 -0.049915 -0.026832 -0.042563 0.043458 0.002217 -0.073286 0.06726 -0.052258 -0.03433 -0.049862 -0.058605 0.022462 -0.042065 -0.123686 0.048444 0.018728 -0.054847 0.034509 0.032494 0.04715 -0.030375 0.024439 -0.007312 -0.011327 0.028361 -0.073381 -0.013162 0.006503 0.000606 -0.109956 -0.001992 0.061009 -0.036384 -0.053917 8e-05 0.005751 -0.027232 -0.015484 0.048411 0.01616 0.024463 0.004335 -0.045742 -0.006876 0.000241 0.093669 0.016309 0.036536 -0.213777 0.060775 -0.026374 -0.071229 -0.047401 0.073009 -0.025956 -0.032237 -0.047718 -0.00314 0.019252 -0.016153 -0.046798 0.009996 0.105967 -0.00946 0.117007 -0.087954 0.046906 -0.062273 -0.011063 0.026739 -0.041826 0.032885 0.117538 -0.095319 -0.059553 0.05008 -0.111124 -0.004386 -0.067251 0.00855 -0.036912 -0.072509 -0.012266 0.017503 0.009893 -0.04713 -0.017805 -0.075787 0.001414 -0.079731 -0.050935 0.012613 0.020634 0.010598 0.055842 -0.041838 0.056206 -0.025292 0.076112 -0.021313 0.005596 -0.050119 0.003175 0.040497 0.083533 -0.056547 0.017623 -0.024151 -0.054383 0.050573 -0.10548 -0.03871 -0.110523 -0.01525 0.064207 -0.008534 0.036758 -0.054482 -0.072096 -0.077766 -0.01269 0.042813 0.066461 -0.050626 0.002459 0.026493 0.061675 -0.04334 -0.031672 -0.01226 0.038885 0.053478 -0.017811 -0.015875 -0.017175 -0.057604 -0.043807 -0.086251 0.046098 -0.00374 -0.034299 -0.019304 -0.086249 0.029344 0.049491 -0.062126 0.022617 -0.007895 0.028186 0.133037 -0.043235 -0.154002 0.027455 0.019651 0.015612 -0.078073 0.086187 0.06836 -0.024873 -0.076531 0.010194 0.018957 -0.025423 -0.02587 0.029644 0.02053 -0.023699 0.071428 -0.095748 0.063351 0.038844 -0.079678 0.026937 0.091551 -0.071248 -0.073345 -0.042515 0.002797 -0.005583 -0.050011 -0.075958 -0.024487 0.030465 -0.017584 0.061787 -0.036183 0.038489 -0.079464 -0.018102 0.04736 -0.0176 -0.095018 0.015474 0.071586 -0.00917 0.049448 0.013312 0.020793 0.019657 -0.026259 0.058144 -0.02363 -0.005563 0.091203 0.039937 0.093996 0.06784 -0.03953
sprague 0.015392 0.001731 -0.059542 0.095497 -0.010882 0.10244 -0.009022 -0.034884 -0.087501 0.055668 0.122756 0.010231 -0.00905 0.005609 -0.111656 -0.059662 0.022379 -0.085193 -0.075684 -0.06642 0.036703 0.047184 0.031357 -0.025844 0.07582 -0.028358 0.044525 -0.015994 0.047416 0.058534 0.0479 -0.001711 0.046203 0.020782 -0.016088 -0.021189 0.058127 0.017293 -0.08298 -0.068416 -0.111368 0.099542 0.00877 0.000151 0.097345 -0.019611 -0.006719 -0.016635 0.14854 -0.029524 0.071639 -0.04852 -0.047757 0.085059 -0.033638 0.00669 -0.0222 0.052096 0.006547 0.075309 -0.05851 -0.037878 -0.023138 0.01497 0.029752 0.081484 0.068049 -0.003438 -0.040289 0.057462 -0.093451 0.064116 -0.046569 -0.056728 0.026467 -0.012974 -0.016739 0.019303 -0.075928 -0.064525 -0.037991 0.040345 0.014832 0.019195 -0.021088 -0.047303 0.105023 -0.006315 -0.002621 0.140909 0.010243 0.060944 0.066978 -0.103974 -0.020713 -0.03953 0.023313 -0.000652 -0.026661 -0.028231 0.033325 0.071635 0.012445 -0.030003 -0.058056 0.200357 0.029357 -0.01068 0.036171 0.074751 0.011987 0.072946 -0.017799 0.08762 0.033833 0.02356 0.052386 -0.014054 0.086497 0.113105 0.029309 -0.067186 0.028842 -0.050241 -0.025953 0.065353 0.073541 0.030041 0.049431 -0.009868 -0.005504 -0.014855 0.045584 0.006461 -0.040208 -0.040681 0.006533 -0.035196 0.065578 0.036891 0.111098 -0.015384 -0.092062 0.024111 0.025646 0.075002 -0.014371 0.011368 -0.052343 0.005553 -0.140252 -0.047749 -0.040191 0.017707 0.062191 -0.062591 0.007246 -0.022678 0.08249 -0.028072 0.00679 -0.0218 0.049169 -0.110275 0.078211 -0.090986 -0.097354 -0.009043 0.072783 -0.01875 -0.050915 -0.015163 0.0271 -0.010437 -0.071121 -0.056922 -0.049753 -0.071852 0.048777 0.030713 0.053128 -0.003406 0.060928 0.00386 0.001146 -0.074311 -0.054176 -0.076204 0.027211 -0.060927 0.069817 0.08268 0.050735 0.032924 0.052594 -0.012385 -0.008766 0.125477 0.018824 -0.155847 0.000471 0.018133 -0.004457 -0.038892 -0.041355 -0.077077 -0.023853 0.022539 -0.040739 -0.022452 -0.01891 0.069984 -0.021915 0.017475 0.022901 -0.030251 -0.008538 0.087107 0.097244 -0.091379 -0.016357 0.03062 0.116068 0.017834 -0.016188 -0.030738 -0.005273 -0.088303 0.002941 0.063959 0.083222 -0.026817 -0.017536 0.029851 0.069782 -0.045638 0.095568 0.082231 0.026744 -0.070246 -0.048784 -0.010972 0.044971 0.093099 0.01816 -0.026399 0.10328 0.007874 0.038383 -0.056945 -0.029536 -0.037547 0.011914 0.131766 -0.057798 -0.065243 0.012122 0.040092 0.073942 -0.088293 0.06437 0.003844 0.100778 -0.019696 0.106569 0.037645 0.057076 -0.047964 -0.038143 0.040003 0.003703 0.018965 0.013839 -0.08156 0.073244 -0.011117 0.00179 0.071283 -0.08004 0.016846 -0.105975 0.025443 -0.105183 -0.048086 -0.013392 0.053091 -0.017347 -0.103199 0.014086 0.00084 -0.077622 0.047787 -0.04589 -0.018095 0.087582 0.077226 -0.00885 -0.070286 -0.104459 -0.033085
brockton -0.010269 -0.098744 -0.01021 -0.019269 -0.003898 -0.015175 -0.027539 -0.033874 0.052006 0.181752 0.057837 -0.033756 -0.024881 -0.000299 -0.075971 -0.016378 0.06713 -0.096698 0.036374 -0.094705 -0.008735 -0.121641 0.086813 -0.011175 0.037752 -0.063337 0.0093 0.026988 0.08033 0.031886 0.041523 -0.026464 -0.050697 -0.060414 0.013158 -0.04741 -0.072723 0.037427 -0.038793 -0.027995 -0.108357 0.015543 0.002927 -0.080552 0.013814 0.033139 0.040449 0.02185 -0.047712 -0.050914 -0.046957 0.040516 0.112489 0.073111 -0.029388 0.110328 0.003327 -0.049743 -0.015487 -0.073721 -0.041311 -0.086499 -0.1014 0.107807 -0.02603 -0.021549 -0.101729 0.050092 0.03822 0.027158 -0.014915 -0.029626 -0.064276 0.01895 -0.05623 -0.026026 0.0199 -0.102782 0.041812 -0.041489 -0.009263 0.143397 0.078113 -0.091304 -0.044107 0.076655 -0.010533 0.0732 0.007258 -0.113894 0.02336 0.090519 -0.07386 -0.059125 0.03505 0.003693 0.021184 0.016848 0.00074 -0.055406 0.001925 0.030693 0.043405 0.011237 -0.054015 0.146838 0.029547 0.024462 -0.017447 0.01124 0.005341 -0.012517 0.000757 0.003887 0.031969 0.064862 0.019146 -0.020426 -0.056509 0.023131 0.027877 0.007163 -0.02065 0.003795 -0.003653 0.043126 0.121418 0.033945 0.001923 0.032622 0.062079 0.010018 -0.005643 -0.05902 0.04273 -0.096055 -0.024686 0.001197 -0.022539 -0.01266 0.252125 0.03326 -0.007227 0.089517 -0.003015 0.000911 -0.01131 -0.058539 0.019312 0.000638 -0.086386 -0.009585 -0.096245 -0.016644 -0.049133 -0.001831 0.026888 -0.0804 0.045603 -0.060302 -0.116147 0.015735 0.008274 -0.071009 0.134804 0.049334 0.062889 -0.012454 -0.036783 -0.016236 -0.12128 0.020351 -0.030901 0.015585 -0.039455 -0.051984 -0.08998 0.075299 -0.00151 0.074915 0.002864 -0.017758 0.063677 0.044919 -0.040849 0.029106 -0.010633 0.014151 -0.034354 -0.004357 0.042167 0.052948 0.044275 -0.04147 0.018162 -0.00996 0.003784 0.038853 0.027124 -0.023577 0.081065 -0.004752 0.033954 -0.051712 -0.026089 0.015 -0.023471 0.083634 0.017115 -0.056406 0.035557 -0.020808 -0.027375 0.08622 0.022596 -0.118993 -0.016127 0.021932 0.109629 -0.069686 -0.016425 -0.008057 -0.040184 -0.106376 -0.047911 -0.076407 -0.110503 -0.022443 -0.021237 0.009381 0.049512 0.009838 0.06106 -0.002852 -0.034745 -0.015914 0.013646 0.029758 -0.184778 0.041275 -0.039709 -0.079649 0.101547 0.03855 0.101416 0.014839 -0.014951 -0.022763 0.101794 -0.017063 -0.023049 -0.000624 -0.000295 -0.061799 0.012171 0.016186 -0.051757 -0.01571 -0.021425 -0.031212 0.051254 0.067187 0.038614 -0.012854 -0.031939 0.059093 -0.117695 0.007825 -0.155668 0.019673 -0.004175 0.046622 0.053839 0.063814 0.008778 0.004821 -0.041485 0.078651 -0.015175 -0.032335 -0.013831 0.003785 -0.046106 -0.093064 -0.000612 0.116702 0.024667 -0.024983 0.044372 -0.053531 0.063014 -0.027788 0.036082 -0.031838 -0.089006 -0.050796 -0.047941 -0.024751 -0.142831 0.057879
bubi 0.03759 -0.001195 -0.067364 0.092706 -0.036593 0.027869 0.069379 -0.001203 -0.025374 -0.022435 0.073735 0.083894 0.030154 0.05618 0.061935 0.021599 0.071869 -0.132116 -0.036205 -0.059566 -0.02779 -0.094515 0.07169 -0.015125 0.098274 -0.017746 -0.071206 -0.014358 0.03736 -0.08648 0.042442 -0.012874 0.058802 0.017407 0.013256 -0.063975 0.044251 0.0303 -0.040257 -0.040928 0.007989 -0.097657 -0.033845 0.056334 0.057149 -0.001639 -0.016001 -0.05159 0.032808 0.042461 0.013412 0.050311 -0.032238 -0.005508 0.006039 0.071587 0.046287 0.004765 -0.081601 0.016577 -0.052293 0.09949 -0.049847 0.026626 -0.012207 -0.006358 0.010118 0.154003 0.057442 -0.039748 0.049613 0.052215 -0.088747 -0.097655 -0.050812 -0.026377 0.028513 -0.005558 -0.041128 0.001722 0.030861 0.069786 -0.048753 -0.108231 0.007025 -0.051861 0.06375 -0.049934 -0.007781 0.067053 -0.100186 0.026487 -0.097819 0.065192 0.080495 -0.02167 0.010157 -0.025038 0.024871 0.041138 0.122657 -0.034807 0.045919 0.080006 0.021205 0.089621 -0.013644 -0.045576 0.089507 0.101014 -0.031303 0.03707 -0.109557 0.040172 -0.012239 -0.062032 0.038025 -0.019261 0.07203 -0.000706 -0.016114 -0.073705 0.035539 -0.117556 0.024919 0.011266 0.100303 -0.077358 -0.033532 -0.064927 -0.086269 -0.053913 0.027689 0.061962 0.091087 0.026756 0.135387 0.099816 0.058982 0.151286 -0.102996 0.01589 0.008021 -0.041791 -0.067792 -0.049408 0.002777 0.01394 0.079549 -0.03797 -0.017821 0.016122 -0.033941 -0.127436 -0.005761 -0.001991 -0.070854 0.014308 -0.026421 0.040095 0.014145 0.086746 -0.080822 0.033486 -0.027076 0.007668 -0.048594 0.073085 -0.003872 -0.025013 0.063927 -0.037514 -0.007488 0.082981 -0.013848 -0.079751 -0.0807 -0.03543 -0.015245 0.033375 -0.028489 -0.092306 -0.031161 0.00481 0.009911 0.023836 0.069432 -0.089634 -0.075108 -0.047849 -0.039854 -0.044169 -0.059484 -0.032705 0.052528 0.040547 0.039602 -0.012202 0.024721 -0.038444 -0.031674 -0.024521 0.023643 -0.011939 -0.091533 0.028222 -0.036741 -0.103513 0.07578 0.000907 -0.050756 -0.058899 -0.006029 0.079859 -0.055285 0.010976 -0.025066 -0.048103 -0.011341 0.026567 -0.014771 0.01501 0.043609 0.06604 -0.100956 0.008214 0.03262 0.026901 0.058774 0.007486 -0.08929 -0.111175 -0.018726 0.023343 -0.042664 -0.019203 0.052469 -0.053139 0.01507 -0.046814 -0.054246 0.026338 -0.001823 0.006859 0.03184 0.049709 -0.039234 -0.046474 -0.015426 -0.069849 0.053827 -0.060564 -0.029705 -0.04793 -0.008783 0.069654 -0.00143 -0.083344 -0.022222 -0.042592 -0.160666 0.002338 -0.099375 0.015526 -0.058104 0.094381 0.078417 -0.0453 -0.184651 -0.053603 -0.036961 -0.110261 0.013337 -0.078618 -0.025042 -0.026975 -0.012655 0.026239 0.01499 -0.050901 -0.142967 0.08798 -0.00427 -0.057045 -0.002183 -0.061859 -0.001128 -0.059119 -0.071351 0.086553 0.013734 0.016755 0.054812 0.117893 0.047745 0.057648 0.002334 -0.006939 -0.003468 0.004861
scold -0.07712 -0.009205 0.002213 -0.086653 0.067931 0.07782 0.064462 -0.051423 -0.022941 0.047689 0.003694 -0.050073 -0.0039 -0.074941 0.031971 0.10895 0.006234 -0.183416 -0.049377 -0.030184 0.065782 0.009866 0.019758 -0.062228 -0.033986 -0.048697 0.065734 -0.032901 0.032925 -0.111121 -0.053766 0.069728 -0.007995 -0.018413 -0.007339 -0.064295 -0.019586 0.061234 -0.005786 0.043388 0.100258 -0.025423 -0.044537 -0.075512 0.019467 0.002389 -0.049806 -0.021199 0.0334 0.049543 0.01984 -0.025211 -0.000374 0.052118 0.007383 0.100686 -0.034415 -0.04046 0.007826 0.030185 -0.05651 0.021908 -0.050197 -0.038608 0.019989 0.033035 0.073718 -0.025924 0.084514 0.081648 -0.068405 -0.067959 -0.024144 -0.004493 -0.07161 0.059513 0.061191 0.006465 0.033296 -0.036962 -0.019476 -0.067448 -0.060959 -0.001086 0.077705 0.042781 0.161142 -0.072102 0.068344 0.034053 -0.038341 0.023363 -0.000705 -0.011927 -0.064458 0.005545 -0.044849 -0.019867 0.115226 -0.045777 -0.075243 -0.007603 0.017589 0.052955 -0.040334 -0.274826 0.069224 0.008765 0.00389 0.03792 0.066056 -0.055013 0.049363 0.024235 0.024653 -0.062884 0.047564 -0.105936 -0.01327 0.024219 -0.05764 -0.055663 -0.059442 -0.018269 -0.081905 -0.044598 0.007147 -0.00062 -0.00842 0.037789 -0.023843 0.020713 -0.005299 0.02565 -0.085616 -0.038566 -0.035246 -0.001008 0.097096 0.01704 -0.217883 0.123558 -0.074762 -0.063021 0.009004 0.159218 -0.025945 0.008837 0.003034 -0.014275 0.028241 0.015376 0.031531 -0.030926 0.042459 0.010912 0.029018 -0.038858 0.112768 -0.050989 0.022692 -0.004133 -0.115311 -0.025276 0.047465 -0.065167 -0.074717 0.033036 -0.015291 -0.015617 -0.027071 -0.092618 0.035582 -0.042504 0.047439 0.012361 -0.008862 0.038423 -0.067499 0.031726 -0.054479 -0.113964 -0.069837 0.076098 -0.046362 -0.037638 0.032926 0.019813 0.091089 -0.023697 0.108442 -0.064779 0.041167 0.038579 0.11679 -0.010758 0.056467 -0.061186 0.015964 -0.073023 -0.066105 0.126004 -0.019128 -0.04547 -0.105419 0.000728 0.016225 -0.019836 0.076137 0.008697 -0.0595 0.048306 -0.026643 0.096437 0.045682 0.00612 -0.042185 0.029402 -0.014439 0.023599 0.074343 -0.093675 0.070355 -0.031899 0.002305 -0.053503 -0.056678 -0.000122 0.064876 -0.053315 -0.03114 -0.030312 0.006032 -0.006241 -0.101293 0.010704 -0.028673 -0.000938 0.04418 0.020067 -0.040631 0.003321 0.029239 0.018367 -0.073364 -0.038336 -0.125096 -0.067183 0.024539 0.029785 -0.003837 -0.033034 -0.053188 0.053442 0.025579 -0.047391 0.019123 0.01184 -0.015857 0.043103 -0.127602 0.004069 0.000145 -0.052482 -0.002542 -0.012529 0.007988 -0.008885 0.003245 0.049211 0.0857 -0.006085 0.070645 0.061398 0.036604 0.008305 0.05926 0.041693 0.053545 -0.034865 -0.008278 0.099336 0.091011 -0.086281 -0.02161 -0.03048 -0.017313 -0.090512 0.00303 0.021727 0.036895 -0.024559 -0.028786 0.006322 0.022634 0.095198 0.079882 0.071871 -0.007833 0.017325
originality -0.02051 0.043956 -0.066159 -0.05486 0.015188 0.048754 -0.027697 0.01602 -0.069321 0.115215 0.149186 0.005863 -0.060248 0.070399 0.167025 0.038551 -0.033382 0.11229 0.089102 -0.035086 -0.033128 -0.015487 0.104862 -0.034844 -0.006936 -0.016203 0.047429 0.059092 -0.062301 0.005395 0.088751 -0.000177 0.057775 0.049687 -0.069422 0.066596 -0.002911 0.040405 0.07118 0.027098 0.021326 0.076065 0.014736 -0.036812 0.06354 -0.073295 0.062381 -0.008566 0.030016 0.103371 -0.013491 0.065882 0.015117 -0.002296 0.033013 -0.017573 -0.069225 -0.076115 0.041286 -0.007405 0.059151 -0.104993 0.051477 0.025727 -0.070537 0.037199 0.021232 -0.062421 0.092219 -0.022645 0.000286 0.083845 -0.056786 0.099295 -0.032248 -0.010808 -0.095312 -0.003786 -0.044862 0.036833 0.073412 0.054675 -0.025085 0.022878 0.060903 -0.044984 -0.080171 -0.015323 0.025752 -0.03377 -0.091069 0.046158 0.011658 0.090723 0.036687 0.031249 -0.01717 -0.053804 -0.074424 -0.043613 0.039866 -0.049554 0.04655 -0.040348 0.042195 -0.191573 0.022037 0.042039 -0.010942 0.061187 -0.0249 0.034092 -0.055472 -0.015125 -0.01367 0.007442 0.098313 0.073276 0.046379 0.043836 0.011337 0.003484 -0.042291 -0.002661 0.011028 0.030153 -0.009524 -0.072285 -0.062203 -0.08501 0.047816 -0.004301 -0.060254 0.016459 -0.071479 0.034712 0.0436 0.066933 0.082956 -0.105608 -0.134288 -0.005158 -0.073994 0.058869 0.056497 0.097921 -0.069521 0.09913 0.027395 0.021077 0.007868 0.051748 0.093328 -0.031642 -0.013182 0.016724 -0.099959 -0.096138 0.088706 0.016263 -0.004824 0.032204 0.073737 -0.044016 -0.041974 -0.013524 0.017451 0.052224 0.015424 -0.01754 -0.021056 0.029253 0.000748 0.031739 -0.065063 -0.002404 0.067558 0.014837 -0.00114 -0.021204 0.033261 -0.018936 0.127728 -0.086264 0.053013 -0.025359 0.02286 0.006685 0.027752 -0.036579 -0.018591 0.070854 -0.084673 -0.034573 0.137198 -0.004878 -0.089247 0.004029 0.075939 0.065728 -0.035538 -0.026531 -0.089569 0.078846 0.006034 0.068525 0.011198 -0.033035 -0.000238 0.122593 -0.037757 0.037161 0.020182 -0.027595 -0.010263 0.081577 0.014841 0.000856 -0.02045 -0.054938 -0.007669 -0.083147 0.054417 0.004844 0.092653 -0.044251 -0.019322 0.092722 0.06686 -0.060273 -0.018632 -0.031643 -0.049485 -0.009621 0.042481 0.016657 -0.079217 0.100083 -0.004888 0.022672 -0.050273 0.060271 0.022087 -0.065048 0.016049 -0.031355 0.022313 -0.038216 0.03168 -0.053437 -0.028431 0.048724 0.034755 0.044707 -0.042733 0.048334 0.050673 0.0011 0.10668 -0.042844 -0.011117 0.01271 -0.017973 0.04673 -0.020863 0.029922 0.105484 -0.04944 0.055724 0.051287 -0.13322 0.055249 -0.084763 -0.075426 -0.023628 -0.089924 -0.069735 -0.036097 -0.021141 0.026276 -0.065015 0.000562 0.075222 -0.086274 -0.093097 -0.046187 -0.077624 0.124329 -0.072586 -0.046205 -0.062436 -0.069044 -0.064901 0.007025 -0.040117 -0.002662 -0.098329 -0.030581 -0.049435 0.052394
hallucinate 0.015245 -0.036728 -0.028937 -0.030045 -0.046283 0.049312 -0.006023 0.005882 -0.047811 -0.037997 0.103127 0.060228 -0.114427 0.007886 0.080807 0.01692 -0.02861 -0.199726 -0.004178 0.03986 0.115755 0.002642 -0.064922 -0.004446 -0.048656 -0.011505 -0.016482 -0.147836 0.083983 -0.031404 0.011065 -0.034375 -0.080284 0.022523 -0.015943 -0.01772 0.007673 0.082685 -0.066729 0.009888 0.048233 -0.093047 -0.013775 -0.034976 -0.053281 -0.018435 -0.000521 -0.00537 -0.007069 0.056683 -0.043919 -0.006038 -0.006197 0.02805 0.03028 -0.022839 -0.080538 0.006544 0.018437 -0.026356 0.009691 0.055747 -0.038576 0.001927 -0.086616 -0.018008 0.034709 -0.027615 0.017296 0.068603 0.03745 -0.059951 0.070726 -0.071332 0.005377 0.01524 -0.040915 0.040991 -0.016391 -0.022902 0.00513 -0.010714 -0.032011 0.010922 0.000292 -0.011383 0.114307 -0.101484 0.046731 -0.052831 -0.081911 0.017234 -0.05445 0.007441 -0.173155 0.032666 -0.020843 -0.148308 -0.067507 -0.032148 0.003433 0.088143 0.045525 -0.015339 0.059961 -0.281472 0.017803 -0.081146 0.08457 0.094131 -0.071343 0.025562 -0.056906 -0.06143 -0.005124 0.051554 0.008066 0.005486 0.061742 0.011682 -0.009316 -0.063098 0.044832 -0.002023 0.103349 0.002095 -0.044664 0.031846 0.087972 -0.031788 0.00416 -0.041012 0.004039 0.037206 -0.007015 -0.056592 0.025522 0.009879 -0.057822 -0.008964 -0.082464 0.034025 -0.027803 -0.045855 0.030982 0.109132 0.000732 0.024209 0.045749 -0.075501 0.018787 0.022468 0.005359 0.041433 0.093023 -0.046479 0.089599 -0.096875 0.034266 0.012772 -0.0641 -0.043433 -0.012025 0.090458 0.107519 -0.016863 0.032284 0.01852 -0.032908 0.034735 0.014698 0.026344 0.087686 0.074101 0.025836 0.04847 0.043618 -0.05713 -0.034816 0.018322 0.100172 0.09747 -0.007549 0.08157 0.108588 0.006559 0.0431 0.040811 -0.048541 0.068233 -0.006206 0.038609 0.073928 -0.012287 -0.046395 0.081674 0.072013 -0.034661 -0.004139 -0.009238 -0.039808 0.058984 0.023438 -0.0398 -0.018661 -0.023231 0.056256 -0.047365 0.063468 0.04737 -0.00561 0.040691 0.052893 -0.001401 -0.109735 -0.071089 0.079015 0.013564 0.072749 -0.148556 -0.009054 0.045335 -0.042193 -0.088924 0.002901 -0.011636 -0.03068 -0.041025 -0.098954 -0.027658 -0.026426 0.043431 0.038763 -0.027535 -0.012055 0.102439 0.002731 -0.026904 -0.009594 0.011561 -0.051895 0.069915 0.017008 -0.003625 -0.036739 -0.03665 -0.043343 0.08122 -0.044021 0.016722 -0.001686 -0.05963 -0.038729 0.113379 -0.020625 -0.059622 0.052823 -0.044938 0.038338 0.022207 0.016277 0.062319 0.045714 -0.011917 0.115864 0.041921 -0.073095 0.032633 -0.049832 0.049648 0.024006 -0.074381 0.101197 -0.001595 -0.040355 -0.016983 -0.063535 -0.002624 0.005668 -0.039892 0.037421 -0.044349 -0.063968 -0.107148 -0.081965 0.082036 0.139516 0.006102 0.074847 0.029409 -0.06043 -0.003574 0.019974 0.032121 -0.000999 0.064157 -0.096715 -0.046893 0.081541 -0.006472
mutinies -0.010237 -0.038671 0.05008 -0.044859 0.010503 -0.00766 -0.041314 0.129229 -0.060888 -0.007294 0.030229 -0.046287 0.021657 -0.049737 0.039412 -0.021948 0.025677 -0.176147 0.000711 -0.036802 -0.019672 -0.057398 0.0035 -0.049836 -0.006486 -0.041288 0.091838 0.041305 -0.064059 0.03897 -0.030119 0.03277 -0.041187 -0.052335 0.063222 -0.015431 0.049051 0.043036 -0.009902 -0.032847 -0.057851 -0.011491 0.097238 -0.01799 0.054929 0.07846 -0.074765 0.118302 -0.008514 -0.056793 0.054583 -0.002337 -0.014644 0.060591 0.014207 -0.062862 0.112163 -0.044651 0.025867 -0.006125 -0.043905 0.019352 0.019372 0.055152 -0.022314 0.053567 -0.013068 0.079792 -0.005309 0.051815 0.086804 -0.017049 -0.077836 0.006905 0.145452 -0.108984 0.029321 0.037833 -0.063802 -0.017169 -0.081982 0.026031 -0.037887 -0.131706 0.061489 0.070815 -0.038171 -0.142173 -0.07766 0.085156 -0.027578 -0.017102 -0.057624 0.000378 -0.01042 -0.007028 0.055064 -0.005199 -0.009314 -0.109455 -0.038124 0.039144 -0.057529 -0.090622 -0.046326 -0.148068 -0.058265 0.000119 0.038493 0.041878 -0.105536 -0.087114 0.070173 0.025252 -0.100013 -0.026651 0.056513 -0.016314 -0.150569 -0.101438 -0.037063 -0.010301 0.008946 0.05431 0.042253 -0.005025 0.081931 0.006594 0.104164 0.020301 -0.016679 -0.051734 0.058316 -0.008622 0.027231 0.028102 -0.030269 0.08699 -0.000666 -0.020945 -0.025969 0.092079 0.114747 -0.032459 0.081738 0.01034 0.007004 -0.011901 -0.045995 0.044797 0.066184 0.105512 0.071506 0.027844 -0.033057 0.082957 0.135488 0.053441 0.058464 0.030224 0.059871 0.086349 0.072116 -0.058607 0.046914 0.04548 0.03411 0.032523 0.080615 -0.062821 -0.073358 0.051805 0.041569 -0.005514 -0.027861 0.066139 0.000366 0.051804 -0.025078 -0.046393 0.05326 0.119273 -0.045217 -0.038855 0.013889 0.053335 -0.022142 -0.001105 0.035274 0.002245 -0.020534 -0.064266 0.08603 0.028425 -0.000186 -0.097488 0.014507 -0.058786 -0.009573 -0.036784 -0.037222 0.000237 0.014692 0.004652 0.032128 -0.04805 -0.060389 -0.065075 0.043605 0.016813 -0.069338 0.031705 -0.002776 0.022093 -0.007021 -0.082841 -0.057128 0.082889 0.10476 -0.059644 0.042588 0.065646 0.024213 -0.058367 -0.004775 -0.03218 0.061072 -0.05205 0.006909 -0.040881 0.054662 0.066704 0.00951 -0.015364 -0.00984 0.003564 -0.026997 -0.021929 0.025242 -0.021861 -0.017462 0.023644 -0.044753 0.007027 0.122647 0.102266 0.067797 0.04351 -0.005902 -0.018434 0.063959 0.127605 0.100474 -0.011919 -0.019552 -0.105473 -0.054357 -0.016796 -0.041753 0.014682 -0.075155 0.070884 -0.018784 -0.029158 0.000822 -0.00677 0.031004 0.033896 -0.07642 -0.017633 0.038294 -0.056703 0.031236 0.081509 -0.049599 0.071779 0.014068 -0.008822 0.062924 -0.006133 -0.022714 0.013053 -0.063385 0.035532 0.033762 0.098833 0.146164 0.112657 -0.049395 -0.057581 0.018152 0.031866 0.078296 0.006471 -0.073758 0.101648 0.022658 0.008331 0.029141 -0.098188
vano -0.016623 -0.040418 0.079489 -0.030736 0.00347 -0.00912 0.034715 -0.034103 -0.128298 -0.114714 0.077728 -0.042785 0.047262 -0.030606 0.060659 -0.053339 0.043561 -0.167355 0.018648 0.032984 -0.007758 0.078064 0.044902 -0.052274 -0.000958 0.075085 0.008224 -0.061094 -0.003001 -0.103165 0.07815 -0.002792 0.030933 0.022623 -0.011633 0.030308 0.019554 -0.060264 0.058413 -0.057823 -0.008317 0.014387 -0.000737 -0.031189 0.02343 -0.088269 0.045421 -0.00523 0.076463 0.077307 -0.093467 0.064595 0.081351 0.057662 0.002256 0.043061 0.020796 -0.05261 -0.005167 0.051043 0.030843 0.0406 0.00834 -0.111785 0.07196 -0.000367 -0.030234 -0.108455 -0.014377 -0.118154 -0.099706 0.065621 -0.04469 -0.055452 -0.037141 -0.030866 -0.031691 0.081951 -0.043967 -0.023828 -0.011789 -0.062828 -0.030152 0.013373 -0.013526 0.006129 0.12127 -0.063151 -0.058801 -0.018839 -0.005628 0.01392 0.0156 -0.019298 0.057404 0.019148 0.00133 0.023635 0.078545 0.044721 0.031295 0.061401 0.077488 0.044307 0.060206 -0.01767 0.049247 -0.008974 -0.013656 -0.013148 -0.010247 0.014659 0.026515 0.012764 0.012177 0.048969 0.006221 0.050009 0.088676 0.001889 -0.074292 0.018511 -0.145151 0.091059 -0.006598 -0.000754 0.018996 0.026656 0.030117 0.006337 -0.091718 0.030581 0.005296 0.038916 0.034358 0.040077 -0.023553 -0.039367 0.017603 -0.042678 0.126827 0.014503 -0.083445 0.002869 0.108094 0.027221 -0.055275 -0.049785 -0.134518 0.046523 0.022893 0.005452 -0.095124 -0.078143 -0.026297 0.049636 0.041874 -0.017655 0.017273 -0.03612 -0.069243 0.055928 -0.003369 0.158555 0.110185 -0.040713 0.075909 0.04131 0.029425 0.026676 -0.06822 0.039457 -0.046254 0.001708 -0.095064 -0.066066 0.011334 0.039951 0.001346 -0.101494 0.003662 0.101809 -0.04972 0.077898 -0.040015 0.007987 0.059271 0.06048 -0.086201 -0.054579 0.039185 -0.010147 0.109858 -0.039487 -0.046213 0.063579 0.034998 0.05313 -0.049405 -0.005744 -0.091108 0.122524 -0.001706 -0.045103 0.047668 0.081531 -0.008711 0.005629 0.049866 -0.020457 0.148066 -0.085735 -0.027786 0.029843 0.031502 0.024574 -0.017303 -0.053952 0.059751 -0.021579 -0.009247 -0.003156 0.138381 0.062352 -0.090861 0.098614 0.028859 -0.011445 0.036652 0.032424 -0.060643 0.080273 -0.020508 -0.003126 -0.023016 -0.12975 0.041105 -0.054131 0.013687 -0.017306 0.045511 0.084371 0.03167 0.073458 -0.046919 0.017847 0.005914 0.007591 0.029928 0.019413 0.05585 0.009296 0.036212 -0.041774 0.011997 -0.057053 -0.003632 -0.013615 0.0527 -0.063592 -0.086621 0.010349 -0.015825 0.093855 -0.127273 0.033248 -0.114707 0.033891 -0.226841 0.009109 -0.032392 0.035735 -0.011392 0.087646 0.062285 0.018271 0.013101 -0.084125 -0.018151 -0.034768 0.026083 -0.018391 0.009045 -0.003523 -0.041449 -0.011319 -0.048947 0.02729 -0.119348 0.006203 0.096806 -0.048158 0.000267 -0.042827 0.058935 -0.039146 0.038641 0.035213 -0.0333 0.008131
crossbar 0.087378 -0.002709 0.029075 0.067916 0.040346 -0.021855 0.051672 0.074179 -0.04478 0.008109 0.082448 0.04239 0.027652 0.049388 0.013513 0.015093 0.027085 0.03768 0.04828 0.009947 -0.054238 -0.001338 0.088407 -0.008243 0.022027 -0.084418 -0.035185 -0.047355 -0.019321 -0.004468 -0.035106 0.082856 0.012212 -0.056781 -0.001555 -0.041429 -0.062208 -0.012338 0.021565 -0.037827 0.049824 0.006705 -0.037005 0.029191 0.088901 -0.043311 -0.044185 -0.006845 -0.074551 0.087714 0.08588 0.058634 -0.028089 0.06185 -0.05449 -0.087922 -0.019124 0.046727 0.019243 0.060116 0.011574 0.130204 -0.045693 0.027325 0.064861 0.007951 0.051157 -0.024969 0.024243 0.020425 0.04702 -0.093564 0.066948 0.096401 -0.119283 -0.124186 0.108146 -0.089661 -0.002724 -0.043943 -0.100821 0.053757 -0.030407 -0.011291 0.044172 0.048814 0.169095 0.05314 -0.038493 0.100754 -0.01949 0.04535 -0.026562 0.027826 -0.043157 0.032776 -0.007455 0.00288 -0.000522 0.036809 -0.003684 -0.081451 0.03491 0.01326 -0.022367 -0.190529 0.00616 0.049048 0.040648 -0.020665 0.008401 -0.02928 0.046415 -0.049396 0.075098 -0.001036 -0.011597 0.042373 0.016361 0.086109 -0.070333 -0.052149 -0.042988 0.006752 -0.009508 0.086346 -0.066155 -0.052021 0.011409 0.07767 0.039641 0.077223 -0.058514 0.029115 0.032869 -0.048923 0.105995 0.010438 -0.12597 -0.063955 -0.04828 0.023497 -0.012968 0.009015 -0.00157 0.059914 -0.023422 -0.174137 0.024977 0.064964 -0.098638 -0.038302 0.031761 -0.03592 0.02494 -0.027711 0.038245 0.092402 0.056357 -0.008825 0.089993 0.034431 0.023712 -0.013487 0.064439 0.024199 0.082369 0.030234 -0.050601 0.05172 0.095195 -0.054436 -0.069107 -0.043174 -0.013904 -0.02822 0.054654 -0.046186 -0.065035 -0.037336 -0.036506 -0.074957 0.068208 0.060363 0.007533 -0.067784 0.004314 0.015749 0.010509 -0.018878 0.014138 -0.052683 0.02186 0.127992 -0.088135 -0.026676 0.01506 -0.148386 -0.03762 0.101875 0.10735 0.010696 -0.045776 -0.005039 0.052278 0.01319 0.01456 -0.133259 -0.048064 0.025832 0.083376 0.111475 0.003564 -0.003867 0.004425 0.054985 -0.044239 0.08406 0.06858 -0.034397 -0.06466 0.058353 -0.007222 0.029072 -0.01095 -0.053315 0.046162 -0.019919 0.026281 0.089712 0.061239 -0.025641 0.076162 0.02721 0.046713 -0.050469 -0.007466 0.132941 0.075507 -0.096957 0.097321 0.093355 -0.036783 0.109728 -0.021641 -0.036549 0.048618 0.016276 0.007513 0.094976 0.015052 -0.011885 -0.007301 -0.026835 0.072063 -0.040415 -0.016959 -0.001575 -0.065375 -0.010282 0.021615 -0.018698 0.061057 -0.043326 -0.05092 0.12674 -0.047685 0.007423 -0.008476 -0.009892 -0.024197 -0.041606 -0.014468 0.037312 -0.018036 0.050281 0.065692 0.027929 0.065712 -0.09807 0.014989 -0.020892 -0.011087 0.105886 -0.008256 -0.103558 -0.067908 -0.068131 0.087405 0.045695 0.015262 0.010241 0.047446 0.011163 -0.047199 -0.07109 0.037839 -0.084357 -0.027481 0.050253
hermann -0.002168 0.065488 -0.067757 0.044001 -0.083411 0.073019 0.011622 -0.005141 0.020003 0.169738 0.078975 0.067501 0.022044 0.002409 -0.000785 0.004717 0.036176 -0.038791 0.011289 -0.078941 0.032365 0.039288 0.030378 -0.038024 -0.003736 0.043692 -0.042371 -0.047375 0.040303 0.003313 0.067324 -0.05544 -0.049818 -0.042636 0.08847 0.008533 -0.022325 -0.004873 -0.005492 -0.029632 0.04742 0.006654 -0.04068 0.061758 -0.036168 -0.035503 0.039515 -0.041082 0.020905 -0.044374 -0.079528 -0.023487 0.059945 0.111929 0.013067 0.057809 -0.0674 0.037119 0.017996 0.024903 0.04721 0.087916 0.079367 0.010995 -0.120515 0.074375 0.076493 -0.145993 -0.056345 -0.02713 0.080574 -0.139051 -0.041799 0.032833 -0.057875 -0.007428 -0.036443 0.080836 -0.090595 -0.050085 0.017654 0.004634 0.101236 -0.002118 -0.099009 -0.090085 -0.013149 -0.0944 -0.054233 0.010825 -0.096989 -0.030573 -0.031443 0.011797 -0.012876 -0.123611 -0.03013 -0.109818 -0.07866 0.024779 -0.016646 -0.084261 0.034533 -0.008666 -0.023505 0.152116 0.052239 0.144765 0.057382 -0.098765 -0.002377 -0.02115 -0.00652 0.059979 0.011308 -0.001564 0.068653 -0.096463 0.064437 0.071691 0.01425 -0.077939 0.142392 -0.046887 0.041224 -0.093923 0.050044 -0.020826 -0.05147 0.069265 -0.055276 -0.017494 -0.019581 0.030058 -0.011348 0.023597 -0.004192 0.040369 -0.048168 0.06575 0.015717 -0.030907 -0.07024 0.027987 0.113529 0.061792 0.031471 0.031543 0.020308 0.00759 -0.018449 -0.014302 -0.011996 -0.075247 0.05118 -0.02693 -0.079868 -0.064259 0.002626 0.034249 0.02869 0.008885 0.079977 0.000158 0.00531 -0.09446 -0.029223 0.05795 0.003076 -0.001163 -0.070153 -0.084195 -0.01964 0.0115 -0.015534 -0.031456 0.03305 -0.045336 0.063495 -0.00779 -0.045536 0.02281 -0.017837 0.00312 -0.006504 -0.040533 0.003881 0.008655 -0.001985 -0.050592 -0.111856 -0.013531 -0.017607 -0.029936 0.060981 0.071143 -0.004302 0.100701 -0.012501 -0.064355 -0.063243 -0.135972 -0.088514 -0.033519 0.055897 -0.024617 0.072373 -0.060315 -0.044486 0.00251 -0.033353 0.038811 0.01315 -0.071697 0.074173 0.074118 0.023083 0.025833 -0.010832 -0.04352 0.180605 0.02242 0.003785 0.071298 0.044299 0.053345 0.000833 -0.036155 -0.099753 0.02806 -0.10167 0.020523 -0.003749 -0.027636 -0.012342 0.038469 0.022519 -0.07187 -0.029653 0.026877 -0.060473 0.01943 -0.090416 0.105976 -0.042381 -0.011449 0.010761 0.068993 0.029917 -0.027816 0.113687 0.151844 0.085875 0.049926 0.037611 -0.111492 0.08494 0.077837 -0.035199 0.002292 0.061883 -0.020443 0.047365 0.099027 -0.052014 0.091681 -0.079471 -0.007406 -0.063396 -0.00829 -0.037438 -0.01218 0.028956 -0.016693 -0.038692 0.036957 0.022764 -0.022303 -0.005498 -0.006177 -0.050285 0.042223 0.05042 -0.016384 0.029053 -0.032163 -0.010401 -0.060169 -0.122121 -0.016206 0.051809 0.035325 0.007707 0.048043 0.083254 -0.020308 0.052777 -0.021015 -0.015827 0.076589
hermano -0.05829 -0.037583 -0.021133 0.030467 0.029341 -0.082618 0.061757 -0.017692 0.023772 0.080496 0.024626 0.010696 0.042111 -0.097539 0.001877 0.03327 0.024856 -0.144527 0.013253 0.097371 0.024838 -0.102138 0.086464 0.04421 0.046804 -0.028039 0.017033 -0.008316 0.0802 0.054793 0.11539 0.069986 0.040856 -0.019257 0.012445 -0.065509 -0.04028 -0.099003 -0.041868 -0.067349 -0.010963 -0.034864 0.089784 0.069387 0.060284 0.02419 0.03972 -0.059619 0.026993 -0.014949 0.030568 -0.053026 0.058371 -0.030505 0.027582 0.015392 -0.014378 0.088345 0.060492 0.058682 -0.061715 0.064193 -0.003632 -0.052482 -0.062111 -0.000925 0.041006 0.073851 -0.108998 -0.059491 0.010131 -0.000615 -0.034617 0.024082 -0.090718 0.031218 -0.05807 0.004338 0.080568 -0.066536 0.005146 0.081011 0.009796 0.080238 0.054412 -0.065104 0.079318 -0.084591 0.002187 -0.000364 -0.087978 0.041269 0.051191 -0.030709 0.040354 0.003476 -0.035774 -0.0624 -0.039959 0.004232 -0.03592 -0.059485 -0.036688 0.065982 -0.056798 -0.044438 0.057445 0.077432 0.020833 -0.074621 -0.030883 0.002831 0.022369 0.079985 0.013539 0.058239 0.089974 -0.037317 -0.030603 0.079122 -0.026809 -0.047094 0.099056 -0.020075 0.041017 0.052494 -0.039358 -0.053342 0.023063 0.033223 -0.13418 0.034158 -0.057089 0.063821 0.017052 0.020542 -0.033791 0.027298 0.012458 0.013423 -0.184258 -0.063157 -0.008058 -0.015115 -0.009624 0.069867 -0.070097 -0.037444 -0.006144 -0.003779 -0.06756 0.06655 0.037248 -0.075286 0.088521 -0.031246 -0.060344 0.027308 -0.067328 -0.061089 0.12483 -0.05222 -0.080018 -0.054547 -0.014711 -0.077014 -0.106326 -0.018154 -0.040178 0.038844 0.014931 0.130743 0.110154 0.063748 -0.023671 -0.090313 -0.125742 0.011569 -0.039748 -0.080227 -0.024215 -0.091664 0.022242 0.022926 -0.014459 0.068926 -0.005348 0.003957 -0.10382 -0.037764 -0.049196 -0.027464 -0.017653 -0.040171 -0.004693 -0.061207 0.056903 -0.097527 0.037753 0.036645 -0.013798 0.056039 -0.018518 -0.095162 -0.012067 -0.088689 -0.060883 -0.064588 -0.150682 -0.067852 -0.121758 0.053954 -0.004824 -0.010211 -0.013432 -0.082183 0.117312 -0.017141 0.037744 0.013495 0.057221 -0.025353 -0.045168 0.068665 0.017203 0.054992 -0.014678 0.005257 0.016836 -0.054562 -0.037302 -0.017423 0.034883 0.032545 0.002113 -0.068866 -0.038991 0.056348 0.053568 0.025068 0.054786 0.018658 0.047316 0.019382 0.028665 0.012338 0.034026 0.044823 0.006732 0.025374 0.081508 -0.009415 -0.049646 0.032233 0.013686 -0.073278 -0.02394 -0.044799 -0.048909 0.007949 -0.040999 -0.069935 -0.042427 0.089654 -0.073881 0.016962 -0.000975 0.104976 -0.137333 -0.078295 0.022339 0.017651 -0.055689 0.049118 -0.060181 -0.014733 -0.054071 -0.027761 -0.031517 -0.036628 -0.037934 -0.078452 0.032287 -0.063491 0.006103 0.134024 -0.049099 -0.042457 -0.109034 -0.09855 0.033257 0.015052 -0.037563 0.073002 0.034927 -0.044503 0.094253 0.0859 -0.045726 0.004465
wracked -0.019889 -0.011683 0.064985 0.031836 0.067301 -0.044642 -0.053987 0.081679 0.015979 0.159126 0.120154 -0.008461 0.022986 -0.156304 0.034993 0.019922 0.034413 -0.182519 0.104924 0.002629 0.005894 -0.052361 0.029694 0.018035 -0.021279 0.013519 0.009041 0.080299 -0.00917 -0.043874 -0.053471 -0.055352 -0.088617 -0.05754 0.014038 -0.033798 0.026231 0.044524 -0.125863 0.048035 0.063806 -0.046257 0.029797 -0.010477 -0.042169 0.022349 -0.085974 -0.021101 -0.043281 -0.026746 0.018255 0.01485 -0.101649 0.034336 -0.045398 0.019896 -0.001589 -0.082736 0.105417 0.015295 -0.041624 0.162261 -0.070907 -0.042119 -0.090734 0.062366 0.066354 -0.029335 -0.008458 0.142131 -0.008952 -0.02012 0.004363 0.151421 0.035848 0.019016 0.025725 -0.012547 -0.062742 -0.073731 -0.064336 0.074024 0.022688 -0.082137 0.08127 0.01337 0.052828 -0.0574 -0.002915 0.082498 -0.026192 0.106399 -0.040289 0.039405 -0.048354 0.014 0.004531 0.013283 0.007465 -0.064045 -0.07673 0.049521 -0.029263 -0.016627 -0.004167 -0.198437 -0.068754 -0.066979 0.037696 -0.03463 -0.003572 -0.043594 0.02946 -0.02493 -0.03606 -0.026758 0.033137 -0.001674 0.015355 -0.023366 -0.100113 0.078194 0.018215 0.053491 -0.013558 0.060554 0.010961 -0.023626 0.041064 0.012725 0.052427 0.06354 -0.044511 0.033149 0.061914 -0.027071 -0.094456 0.099398 -0.043433 -0.077107 -0.088688 0.102599 -0.024689 0.007464 0.07746 -0.057657 -0.022438 0.040843 -0.027898 -0.051035 0.004425 0.107975 0.064628 0.118745 -0.065682 -0.028402 0.080705 0.013751 -0.018713 -0.046945 0.03725 0.0733 0.085272 -0.007272 0.07345 0.010557 0.002931 -0.027195 -0.062373 -0.014131 -0.09344 -0.068751 -0.006093 0.045888 -0.026348 -0.066734 -0.009854 -0.027265 -0.076034 -0.065049 0.028121 0.023798 -0.080191 0.036267 0.006336 0.064277 0.086304 0.001817 0.01049 0.120263 0.011964 -0.014441 0.022602 0.037035 -0.063065 -0.080028 -0.000637 0.058056 0.022009 -0.055366 0.00103 0.022573 -0.0312 0.049018 -0.023998 -0.024709 0.064631 0.047684 0.009947 0.019346 -0.064389 -0.057103 0.033402 0.008793 -0.006994 -0.014825 -0.018801 -0.060091 0.030987 -0.024866 -0.087919 -0.004592 0.040445 -0.018892 -0.066115 0.01593 0.068156 0.000378 -0.067509 -0.024348 0.030318 0.005735 -0.024277 0.014086 -0.035251 0.005482 -0.071963 -0.011238 0.029738 -0.150246 0.063534 0.041102 0.040898 -0.010057 0.033771 0.030302 0.064513 0.002248 0.039172 0.014282 0.002428 0.040483 0.011509 0.030744 -0.080339 -0.114781 -0.080871 -0.027896 -0.032555 0.080193 -0.045091 0.016593 -0.008813 -0.033378 0.062663 0.000498 -0.100311 -0.043726 -0.172135 0.005773 0.013109 -0.04203 -0.042131 -0.04037 -0.047751 0.071298 0.025363 0.037664 0.041047 0.0022 -0.030909 -0.048095 -0.051109 0.072966 -0.031973 0.054116 0.055081 -0.028428 -0.052701 0.105465 0.025656 -0.032874 0.074521 0.007485 -0.038596 -0.006073 -0.035402 0.064229 -0.041169 -0.145711
jemmy -0.032935 -0.032783 -0.058922 -0.018238 0.029371 0.021959 -0.031061 -0.080566 -0.062709 -0.126918 0.086469 -0.021489 -0.100815 -0.006579 -0.083819 -0.010584 -0.007745 -0.300343 -0.066807 -0.014788 -0.030255 -0.014429 -0.033241 0.024825 0.042362 0.002294 0.112896 -0.042293 0.012167 0.030302 -0.006343 -0.081356 0.007959 0.007739 -0.022473 0.012505 -0.105186 -0.007699 -0.047977 0.027677 -0.001714 -0.024262 -0.021347 0.019257 0.095022 -0.024424 0.007708 -0.053315 0.028683 -0.000237 -0.054831 -0.004056 -0.054662 0.041028 0.048766 -0.055806 0.055571 0.04844 -0.036613 -0.049883 0.039005 -0.017001 0.054687 -0.118395 -0.024114 0.067821 0.002933 -0.012625 0.01944 0.0252 -0.017093 -0.0711 0.028811 0.002596 -0.004045 -0.093559 -0.02947 0.046331 -0.004827 -0.169884 -0.010465 0.067647 -0.003482 -0.032114 -0.029014 0.045366 0.09339 -0.0899 -0.127343 0.055663 -0.073168 -0.055673 -0.000558 0.024222 -0.001223 0.002829 0.006522 0.0115 0.051458 0.105139 0.016023 -0.048492 0.001913 0.025788 -0.075768 -0.031957 -0.035685 0.092173 -0.032253 0.022431 0.036802 0.074986 -0.014683 0.002205 0.075823 -0.001784 0.000664 0.025175 -0.051369 -0.074207 -0.008314 1.3e-05 -0.025247 -0.003774 0.004247 -0.011884 0.000637 0.023451 -0.012805 -0.020357 -0.05137 -0.033917 -0.006862 0.013895 -0.095156 -0.023897 0.090216 0.014244 0.046909 -0.030846 0.001885 -0.058262 -0.042401 -0.065535 0.056061 -0.07773 0.083769 0.061319 -0.002535 -0.000164 -0.011639 0.000928 -0.109641 0.025562 0.015013 -0.025843 0.062828 -0.116018 0.062858 -0.065075 -0.048703 0.030219 -0.125971 -0.064423 0.135973 -0.018213 0.033288 -0.037735 0.067647 -0.076907 -0.053442 0.024032 0.012772 -0.043886 -0.025679 -0.051223 -0.021283 -0.155772 -0.029405 0.022971 0.058072 -0.129515 -0.014512 -0.034122 -0.041525 0.092589 0.114036 0.040472 0.058955 -0.033529 0.004981 0.052332 -0.072827 0.029349 0.016726 0.015874 0.064183 0.01045 0.018373 -0.029507 -0.12106 0.045904 -0.108423 0.010136 -0.002622 -0.000473 0.014448 -0.050075 -0.055522 -0.006769 0.046998 -0.141329 -0.087722 0.004816 -0.057778 -0.037578 0.0211 0.078232 0.031145 0.022331 0.016909 0.018379 0.077709 0.015734 -0.055607 0.002287 0.053492 -0.033465 -0.020828 0.04081 -0.001119 0.013333 -0.016543 -0.01605 -0.009996 -0.052666 0.068889 0.029997 0.086666 0.023722 -0.04469 0.064451 -0.087969 -0.004528 0.011607 0.025086 0.011238 -0.041253 -0.020862 0.111212 0.074884 -0.028245 -0.10375 0.047029 0.012506 -0.047318 0.039175 0.02442 0.096915 -0.002048 -0.083575 0.029463 -0.001783 0.082512 -0.068992 0.145025 -0.021367 0.053473 -0.047401 0.068751 0.027078 -0.02739 0.055324 0.036675 -0.056087 0.0098 0.089662 -0.014598 0.079139 -0.011671 0.010496 0.025964 -0.054307 0.118815 -0.085425 0.081669 0.031413 -0.061281 -0.131894 -0.100025 0.006388 0.027381 -0.031558 -0.000131 -0.028191 -0.044102 -0.057339 0.046359 -0.033115 -0.091827
